svm_type c_svc
kernel_type linear
nr_class 43
total_sv 43
rho 4.4985249350837364E-4 -0.016485962478830274 0.025470504223140455 0.024586131488304463 0.040995287543956316 0.04777348698109174 0.03382013332405087 0.04026783704389336 0.054069079182136104 0.027958859438650396 0.050072439790947776 0.05969280936184118 0.06000848314211815 0.05954580940061005 0.0538576360877836 0.060396544836222255 0.06375198708066154 0.02019331734298424 0.03288472154842159 0.03217013236817223 0.023141795914519037 0.012424703246761482 -0.00573611101744298 0.015406432655146851 0.027264036978754014 0.010983474516207181 0.022583069664793953 0.024526747743143673 0.01952198262871674 0.03141044106632873 0.0486423050463356 0.013578605650780284 0.03977965822516527 0.04363396174823553 -0.00638166124695605 0.003123236681230601 0.04560757750907496 -0.274416784696363 0.029781573658396177 -0.02048015361463662 -0.02690528677318138 -0.011930933643113928 -0.018856595366306017 0.0316616573636761 0.0262212835213953 0.04592269230883517 0.05322515630157598 0.03578214089688192 0.042508937566307026 0.05728585385366891 0.029742373465935668 0.05272644676141702 0.0629097547468267 0.06369645052093365 0.06242566173612518 0.05660483422100837 0.06337428207933105 0.06708565078533502 0.020696248030265263 0.035135508272168714 0.030758646909199605 0.018858341694413028 0.015284867177827621 -0.0045641722957570074 0.011664519534204665 0.02478216523904786 0.01182932559047245 0.024030885177957817 0.026067823824317937 0.020743489226817236 0.032630493257144844 0.050891836571944626 0.014030563014996833 0.04186960906094983 0.04664926086233612 -0.007799256070959437 0.0030126598538107174 0.04740397245040451 -0.2933541263167312 0.03091493282585489 -0.024630015241949188 -0.03210554035117408 -0.01317615592369803 0.057424828994719235 0.05134056949221755 0.08246392056003327 0.08623542138716811 0.056508347178779506 0.06338129597028397 0.0869852646243694 0.05471622801929232 0.07429096689340664 0.08702074309204644 0.09240041469689064 0.08342623582456943 0.07789832880696856 0.08505382020009344 0.09115178748866892 0.03376620337789671 0.060880115384376765 0.048215524380311514 0.04635430802670282 0.061174859075233456 0.004772371530830544 0.03774532844091816 0.048588757722125564 0.04908558353432113 0.04596228898938293 0.04756336306487352 0.04189593058330754 0.044873041258155055 0.06880873905153972 0.023940195038021805 0.061153175781878844 0.07550169860601308 0.013193206591964213 0.016584040292895175 0.061710401167173856 -0.4095952473821596 0.09758801149507157 -0.012149295876623611 -0.029381943695394597 -0.0058663614941858455 6.334301003101395E-4 0.021891692683958297 0.030602377262991975 0.0157495859664194 0.021786079491615595 0.035200592812500986 0.005690358675973783 0.03320161474110961 0.04301732898397237 0.039565991038683634 0.04319165634642097 0.036591566122785135 0.043752744267030685 0.046195044635015226 0.0011200242167399566 0.009267525094619256 0.00831170541592341 -0.013085598517357688 -0.02628508235179261 -0.02453739408652522 -0.019251008555905003 -0.004047481533270503 -0.02534159921060475 -0.001087688152227706 0.0017353482886321991 -0.004442189565489141 0.017387563998880973 0.032803182497084915 -0.0015868213505116913 0.021649094610409758 0.02046377341886174 -0.041956939475332966 -0.019730437733839867 0.03193798004382731 -0.4520299644365222 -0.012207699170703634 -0.06381989149854128 -0.06993810343288409 -0.03382224562973013 0.036047495984044886 0.036244914118487515 0.019884911591338206 0.023839760584535963 0.043295111135182474 0.006962551216297186 0.03226289324235143 0.04193113025661166 0.03743167404374326 0.041341633314244675 0.034879588320849475 0.041852168218965646 0.04410706479706761 6.981262604703886E-4 0.008311306748693958 0.0075407848839379454 -0.012862995160404456 -0.02113884516583875 -0.023855987333735396 -0.018623458166069362 -0.0043571468544314484 -0.02412823852888213 -0.0015225952878026305 0.001113434202224095 -0.004709070269874438 0.016557369084827078 0.031352124766234724 -0.0018556368040527627 0.02042404852567481 0.018977616681465026 -0.03948361210703322 -0.01922183500075958 0.03070295804145351 -0.2888438839462064 -0.006761916014752067 -0.058808986552423725 -0.06437448351049024 -0.03264383896288514 0.020078154116051294 0.0018035492352628246 0.010707648451971252 0.026581098869935094 -0.011035280320552232 0.0218847613631854 0.031628412354942625 0.027233460030228862 0.03329540710514589 0.02613679197845853 0.033685271352591695 0.03559026678358457 -0.009838251848142576 -0.005035947455306999 -0.003745820742902417 -0.03105832829631039 -0.044038287830373335 -0.037133342512589707 -0.037564194550576246 -0.019793722186238316 -0.04724758729973644 -0.01545752018223645 -0.012591512058814036 -0.018997466934656426 0.008832039230053379 0.023191037901415967 -0.010871026230119263 0.010642088020777152 0.006461162531560483 -0.06351048059556685 -0.033676900311731206 0.023623533118800166 -0.3169967826355542 -0.028632600538546882 -0.09001236784566569 -0.09599121630492746 -0.04723992458819248 -0.011747100175205638 0.0024704433841220563 0.017977970745707506 -0.021857997633595527 0.013869650208830908 0.023843731849723326 0.01825275948384597 0.0257586821469713 0.018501282364636218 0.02600848490644858 0.027442709191724646 -0.016188121586528492 -0.013474832697923045 -0.011002122224351929 -0.04111549005458848 -0.052678144615530886 -0.0429205718488852 -0.04571534972368596 -0.02806059371443803 -0.055959722709596704 -0.023311979692194562 -0.0206682022682676 -0.026731441277525914 0.0031410657058945635 0.01625862902213404 -0.01625460156395686 0.0033251471224495788 -0.002474505893029999 -0.07458350392880941 -0.040246989967611224 0.017574124355427045 -0.31808971695068156 -0.04109569871084329 -0.09559892203539722 -0.10089511472496593 -0.05279938396583628 0.010409840708085927 0.021997728710252407 -0.010966148982723745 0.020216027762886224 0.028435610895542585 0.02387362800071058 0.030679402168309 0.02224915290774887 0.027997851633449367 0.029368066319971575 -0.009319486640098962 -0.0053145613423568605 -0.004203757235112793 -0.02535642636622093 -0.03302738136699901 -0.0317541325178472 -0.030232322618541474 -0.0170172483124702 -0.0362309284187492 -0.01371946529178203 -0.011131170507983956 -0.016545502726363903 0.00692931659788365 0.01955396549257893 -0.010811426223335419 0.008473891794884558 0.004024720861572906 -0.05534054924806675 -0.028499569926281332 0.020838796446037033 -0.257244194690172 -0.02265124466176749 -0.06405595836029221 -0.06822378958508679 -0.03967999481858975 0.014865662339954344 -0.019553069921995014 0.013138918857812598 0.02283468094765384 0.017327071950064887 0.026276523273906616 0.0168611166444963 0.022190805916697975 0.022963324317812006 -0.015721578149303195 -0.013349582442357288 -0.010897958171443678 -0.03306613971754979 -0.04079959605950556 -0.037354337433403106 -0.03773219089501012 -0.02449866648637755 -0.044278776080627136 -0.020881643826442087 -0.01823997117151599 -0.023625585422800466 0.0014820435764641982 0.012904625889638144 -0.01644409275371883 0.001374101171102149 -0.003915508913058918 -0.05528299883943966 -0.03713113238285626 0.014883881685497924 -0.24533117225887313 -0.030724114842438865 -0.07077706377631365 -0.0745714959607513 -0.04515376658897985 -0.06619012887832998 0.0013209661955895236 0.010914665723560368 0.004430038951742432 0.014154349273599154 0.00657439799895676 0.013784588157190303 0.013891694583027858 -0.025028153098270556 -0.02484031987969937 -0.021267309697589276 -0.048150741924068985 -0.05744398656213434 -0.048975247511410025 -0.05323588052887107 -0.03781902875063681 -0.06223717190358613 -0.033163138006570225 -0.030097326898881338 -0.03613223708617941 -0.006020542152702646 0.0047800129470914055 -0.024993885197688304 -0.008903877144662342 -0.017058075945130202 -0.08551278903098236 -0.04722872672833889 0.00758724232587249 -0.2623879906583819 -0.04737172002353063 -0.09261118562517323 -0.09655616870101458 -0.057650952354354246 0.030664301815329864 0.0389083048881429 0.03369104966506997 0.03829496512282593 0.03233093605505877 0.038008384992203936 0.04005602128069441 -0.0028557269539404295 0.003365133057711134 0.0033413816865768275 -0.017501609127311912 -0.025603356503224983 -0.02668520889283066 -0.02294102030438383 -0.008994310491163393 -0.02872386160757756 -0.005950849212225329 -0.00331810760560014 -0.009011176606953164 0.013198789871126104 0.027688564949999384 -0.004943164059918237 0.017594213660633518 0.01586035091140392 -0.05148885423157079 -0.02257736449480463 0.027544692817368377 -0.2780727338823561 -0.012498026955550579 -0.06082403515159118 -0.06583956178451089 -0.03517527739517057 0.015771858492681368 0.004594441524363724 0.016608188669679613 0.005936481612633937 0.012090047086724232 0.012312289421127165 -0.024119271780710605 -0.023753188373994316 -0.02059285510656972 -0.04438402546058162 -0.05233750799777637 -0.04596024488114714 -0.04886499075518547 -0.03538951657481704 -0.056234511660317565 -0.03131107351096185 -0.028564534086402027 -0.033988082101081396 -0.006434488820713513 0.003893928030342053 -0.0279804952101832 -0.01098332322182749 -0.017924354836836187 -0.06625894368658525 -0.045551881099108016 0.007275148054226799 -0.24205171468935194 -0.04333024192379753 -0.0817187404061066 -0.08514115353407048 -0.05372351846128076 -0.02535309791479534 0.006614964760218722 -0.0035563558819533547 0.0048080122652574 0.004992980812266401 -0.03149637570840058 -0.0327158136586716 -0.028502348432782876 -0.05496629257390717 -0.06370287618473602 -0.054237042856256634 -0.059603025417694244 -0.045029137610026915 -0.06830230563213346 -0.04033842036802682 -0.03735944815583769 -0.04310985399958289 -0.012927354355347864 -0.003639747787591796 -0.036105991356500944 -0.0184883256131112 -0.0245547313751433 -0.07827157783726424 -0.05304190231033257 2.2415730797931133E-4 -0.25024637962488794 -0.054940364045408696 -0.09530594836005912 -0.09871245896964398 -0.06242352488458636 0.01578589728490476 0.0036734654799559507 0.011077281928947302 0.011413313896694754 -0.028974155941614343 -0.02973364198787598 -0.02546191035200529 -0.054626880616157614 -0.06472133013014103 -0.053898928556629144 -0.05994744641684058 -0.0434157003667619 -0.07017674256088968 -0.03826592561959341 -0.03499236412556561 -0.041356230352727064 -0.009315337023194203 0.0019373983217989554 -0.03203654968040759 -0.012872929139590816 -0.01994324327722863 -0.08182042146394775 -0.05253166355635974 0.005729101334667419 -0.2710989526774088 -0.0545583254942299 -0.10273405246040967 -0.1067926500425993 -0.06302524000328091 -0.014109686771860197 -1.9411208800157453E-4 -3.629213984845947E-5 -0.03570322788796765 -0.035043364680254596 -0.030922708539953714 -0.057028435818112566 -0.06307935097369244 -0.05457189589928335 -0.059450396948256934 -0.046312308926775625 -0.06709739013306759 -0.041979206881702646 -0.04038126953068999 -0.044508716399909165 -0.016220117462961037 -0.008211254865610362 -0.03678297112213014 -0.020139031815726627 -0.026988321333421217 -0.07589080644568602 -0.05576206220812274 -0.004717051018972018 -0.23428425543361286 -0.055313631375244476 -0.09041033133139242 -0.09337413407446915 -0.062046882629936295 0.009311949013832699 0.009297542716929286 -0.029885314397097185 -0.029915651220018713 -0.025384512465187026 -0.04879332187442209 -0.0566628377863605 -0.049386737214304643 -0.05312583303714247 -0.03980402843803921 -0.060608898513089926 -0.03561887318245649 -0.033857492962324987 -0.038231425590713464 -0.010866707456701041 -8.27245160818002E-4 -0.033244689679749806 -0.013732734438653749 -0.01994796343286942 -0.07009196992633404 -0.053505036603919365 0.0030300814963986067 -0.2384296599652571 -0.04819929912490828 -0.08512080148567946 -0.08833986538430283 -0.057020617583407374 2.840349189048297E-4 -0.04146309490407485 -0.04556717332860449 -0.03742697983403609 -0.0592330368170817 -0.06414082461232029 -0.05523747260043943 -0.0603893145842358 -0.04693556422898082 -0.06830314654117275 -0.04249520509035887 -0.041568797239243116 -0.04507138313669823 -0.02081804590163938 -0.009836439157787424 -0.03495839324471417 -0.019936920812903214 -0.027252846393168273 -0.07727707695428876 -0.05420269277736489 -0.005141309482481038 -0.23758773887806606 -0.056236670662917376 -0.0922995268326039 -0.0953308695645072 -0.0628616104966302 -0.043741254868616686 -0.04679534233924931 -0.03723659385929823 -0.06410936796489297 -0.06831426810949148 -0.05790157258813666 -0.06412019057150697 -0.049583896832753105 -0.07299769291567815 -0.044759229696687886 -0.04410828430998048 -0.04748799858628949 -0.02114654405221006 -0.011544035572212952 -0.0371989883881354 -0.020390803842974092 -0.028718111407794344 -0.08253755498900217 -0.057010083103738785 -0.004975731339367684 -0.24837817458928124 -0.05999562108914969 -0.09932133179942948 -0.10256688119008084 -0.06602362639350945 0.009255542029051433 0.0082378166947219 -0.013978842876500863 -0.015648566880792636 -0.01929081284645151 -0.014156641779691892 -0.003985883229958631 -0.017334644288139245 -0.0018505159332473653 2.0610154119360402E-4 -0.004543647855600685 0.014751013202009444 0.027458653318759074 -0.0021712247678926655 0.01591496374436585 0.01390046767040376 -0.027839097662439638 -0.01581908149815847 0.02643767469382552 -0.21954036933737053 -0.005572791845880776 -0.038632914558107245 -0.042221907746422094 -0.02583040031095285 8.660406359171091E-4 -0.02488173673196492 -0.031680252432290334 -0.030693845269940123 -0.028431579705815224 -0.013186329466136737 -0.035515355920077596 -0.009685027972515137 -0.010252655898174368 -0.013470304910543351 0.011806760393037408 0.02709358865673872 -0.007435262371453533 0.013753706792010156 0.010635840949431152 -0.050272419127349366 -0.026831828203811803 0.026509792430289947 -0.2797665608944415 -0.0180951239749767 -0.07099239204611063 -0.07630940623439919 -0.03974045925510694 -0.03069548696513369 -0.026186099469189816 -0.026977730405093325 -0.02386853818094048 -0.01158591589853275 -0.028837519465609862 -0.008718907089735328 -0.007270002905065631 -0.011865970384623115 0.010582257097858871 0.022796778109595905 -0.006831730982461481 0.011739006801668728 0.008632672587083334 -0.0406040883898422 -0.023370705049881035 0.023204643290878346 -0.24332356114751574 -0.015148410020882075 -0.054933537876721505 -0.0590196278236812 -0.03452464298005831 -0.009188566384678687 -0.01746566764508284 -0.007140517701067495 0.008664825676488075 -0.011774937341312963 0.01078105692231146 0.01347158192125164 0.007083897036864517 0.027101902335127104 0.044969350106639716 0.00560685248785564 0.032936719880749976 0.0351432830340741 -0.03297490460845598 -0.01105020375721022 0.04104783797381084 -0.3192592532741889 0.010722034252585999 -0.059698701665255705 -0.06796640534757703 -0.027569307847153723 -0.013249517875968397 0.001273971640769922 0.017330945276023968 -0.0016850532450858324 0.018679450829823363 0.02128349750805336 0.014732569720215416 0.030564459956409884 0.050372709775523106 0.009915619876368797 0.04018887422953288 0.04514520901760166 -0.027056874212683546 -0.005608536575892664 0.04666992741097653 -0.3574638982046987 0.026338384992588892 -0.05855111555706394 -0.06901190331929996 -0.023975259682619043 0.01997178300535385 0.03207794919940277 0.021177464162109416 0.026539597080223576 0.023837606741825113 0.02045118847946803 0.030182293652875947 0.04513648398641812 0.014435840149911616 0.03706396325421668 0.03962207729131517 4.469283346115738E-4 0.006192667121873718 0.04286051677633318 -0.2279674700183394 0.026227734414089543 -0.008374967318707682 -0.012930306360477317 -0.006365005967451598 0.031580571056041506 -0.0032839481220543476 0.01704859543353665 0.018905290022419585 0.012721892998357909 0.028812646738543224 0.04744849835276721 0.008944141306182374 0.03733225520256944 0.041000014124271456 -0.024932426556277143 -0.006004460045558435 0.04432964615032309 -0.3201478306418206 0.019637722362115362 -0.05025647457664739 -0.05893289245018174 -0.023025437439512686 -0.024245196403938074 0.002870944012577592 0.005329722085767763 -7.170851635436293E-4 0.019796325846471508 0.03570559945851759 8.003906991886911E-4 0.02482329128364702 0.02450322961203133 -0.03952308079955813 -0.016451650142088603 0.03443327465962431 -0.29249310537025464 -0.001211108140587669 -0.059144069863749316 -0.0655192768136752 -0.03092822807779072 0.02954248558275374 0.024079267978474483 0.01817606252397752 0.03247909784663294 0.05360265851680701 0.010992558021820642 0.04340429027420534 0.05000679014761067 -0.02989207029147245 -0.005128060621857777 0.04921562350679354 -0.3659041861426653 0.029550026068238644 -0.07116214406211974 -0.08431799657101102 -0.025066063207768163 0.0035174811950540175 -0.0072290402306851576 0.018016649456268796 0.03340958846937103 -8.479509987300293E-4 0.021360195967567108 0.020174251382461872 -0.03644318578495831 -0.017488390632026007 0.03287033616843149 -0.2734500636106447 -0.004506018249327948 -0.0546682446507436 -0.060104970826694526 -0.03078476158457777 -0.008423483274452082 0.01572434583029514 0.030281642658128938 -0.0025306805329134985 0.019427396211497694 0.01705265262475475 -0.038383915885583875 -0.019414862352600704 0.029760818483970164 -0.2677062030243036 -0.007851553310383785 -0.05592066575773291 -0.06103885871706183 -0.032231691436545695 0.020493954821899196 0.03667449025869285 0.0011941647162696523 0.023975161467067352 0.023455815439133776 -0.03252497342210514 -0.014663703418808183 0.03562683120153687 -0.273969524707661 -1.554099462364178E-4 -0.05037836941294227 -0.05595798024310206 -0.028217487083149084 0.015656596939126466 -0.01616327592510247 -4.980485821219904E-4 -0.0046116723254956415 -0.04008410213991276 -0.027776794390319548 0.016952613615033973 -0.190472958635034 -0.023396357880178353 -0.04883821394388743 -0.05135622288767072 -0.03578827478218738 -0.034029279287381975 -0.013857136716832752 -0.01764042111711528 -0.06219526700898603 -0.043466472661825684 0.006641180442831018 -0.22126277567498476 -0.042589561502031525 -0.07474256345045127 -0.0776271686449932 -0.05201861411132014 0.03207266049014379 0.01846408143974898 -0.019572836563317875 -0.013643706603880812 0.039157157468441284 -0.1882738641721049 -0.0015551473576929098 -0.02726933932502007 -0.030134373223138056 -0.01983789056931684 -0.007838191769237834 -0.056010804976275086 -0.04303841700192024 0.01832375413319909 -0.23606626533903396 -0.030727941552105342 -0.06785663761031602 -0.07137857511858359 -0.044486033404512515 -0.07725532400972224 -0.047924540706615115 0.019783310916501318 -0.2831256282419736 -0.03243829361500872 -0.08662873407465899 -0.09168681623107933 -0.049027687500372785 0.009690654182083591 0.056444040637184 -0.3512192283297768 0.05605390869431304 -0.02577499032988939 -0.0388768720402588 -0.010745289152854554 0.043767281256831714 -0.2535377962906118 0.020145826481352103 -0.022008983691325312 -0.027324944701505594 -0.013556900624006829 -0.1980160929672381 -0.040048937815538865 -0.06627652642327764 -0.06866461635598009 -0.04878403706785717 0.6625388803022023 0.39893189796268747 0.3938902928093748 0.23488995873821716 -0.10263014428843142 -0.11377515580681852 -0.038461489234528745 -0.5998256320837072 -0.002877672710644319 0.00221585431880289
label 1 2 3 4 5 6 7 8 9 10 11 12 13 14 15 16 17 18 19 20 21 22 23 24 25 26 27 28 29 30 31 32 33 34 35 36 37 38 39 40 41 42 43
nr_sv 1 1 1 1 1 1 1 1 1 1 1 1 1 1 1 1 1 1 1 1 1 1 1 1 1 1 1 1 1 1 1 1 1 1 1 1 1 1 1 1 1 1 1
SV
0.015403099798624025 0.022828432154593518 0.012397211686702546 0.01170696712452979 0.0123081268644551 0.011463062164233692 0.00974909063429188 0.009163170029543729 0.009468142249822226 0.010985477967860906 0.008550817974671124 0.008556341871396887 0.009678816188150894 0.007723842460767934 0.008191678476619793 0.00785761525405602 0.008274841507037327 0.009244385463339274 0.011420222939703677 0.01096919800460219 0.020325677295136676 0.01844900652482717 0.014732786159238002 0.020932000383276375 0.01576446443012818 0.018003426189139266 0.01153010325297542 0.011111928740958926 0.011700834570024325 0.006742331338836717 0.007534370044992845 0.007389741907039627 0.008691447512733602 0.011116535337439839 0.017845560312362656 0.011281108859188916 0.006506263032679437 0.009870515750111603 0.017959487018998098 0.02209289154741935 0.022036403643861373 0.010916506118380527 1:-0.5681818181818181 2:-0.84 3:-0.5862068965517242 4:-1.0 5:-1.0 6:-0.8333333333333334 7:-1.0 8:-1.0 9:-0.9347826086956522 10:-0.9347826086956522 11:-1.0 12:-1.0 13:-1.0 14:-1.0 15:-1.0 16:-1.0 17:-1.0 18:-1.0 19:-1.0 20:-1.0 21:-1.0 22:1.0 23:1.0 24:1.0 25:1.0 26:1.0 27:1.0 28:1.0 29:1.0 30:1.0 31:1.0 32:1.0 33:1.0 34:1.0 35:1.0 36:1.0 37:1.0 38:1.0 39:1.0 40:1.0 41:1.0 42:1.0 43:1.0 44:1.0 45:1.0 46:1.0 47:1.0 48:1.0 49:1.0 50:1.0 51:1.0 52:1.0 53:1.0 54:1.0 55:1.0 56:1.0 57:1.0 58:1.0 59:1.0 60:1.0 61:1.0 62:1.0 63:1.0 64:1.0 65:1.0 66:1.0 67:1.0 68:1.0 69:1.0 70:1.0 71:1.0 72:1.0 73:1.0 74:1.0 75:1.0 76:1.0 77:1.0 78:1.0 79:1.0 80:1.0 81:1.0 82:1.0 83:1.0 84:1.0 85:1.0 86:1.0 87:1.0 88:1.0 89:1.0 90:1.0 91:1.0 92:1.0 93:1.0 94:1.0 95:1.0 96:1.0 97:1.0 98:1.0 99:1.0 100:1.0 101:1.0 102:1.0 103:1.0 104:1.0 105:1.0 106:1.0 107:1.0 108:1.0 109:1.0 110:1.0 111:1.0 112:1.0 113:1.0 114:1.0 115:1.0 116:1.0 117:1.0 118:1.0 119:1.0 120:1.0 121:1.0 122:1.0 123:1.0 124:1.0 125:1.0 126:1.0 127:1.0 128:1.0 129:1.0 130:1.0 131:1.0 132:1.0 133:1.0 134:1.0 135:1.0 136:1.0 137:1.0 138:1.0 139:1.0 140:1.0 141:1.0 142:1.0 143:1.0 144:1.0 145:1.0 146:1.0 147:1.0 148:1.0 149:1.0 150:1.0 151:1.0 152:1.0 153:1.0 154:1.0 155:1.0 156:1.0 157:1.0 158:1.0 159:1.0 160:1.0 161:1.0 162:1.0 163:1.0 164:1.0 165:1.0 166:1.0 167:1.0 168:1.0 169:1.0 170:1.0 171:1.0 172:1.0 173:1.0 174:1.0 175:1.0 176:1.0 177:1.0 178:1.0 179:1.0 180:1.0 181:1.0 182:1.0 183:1.0 184:1.0 185:1.0 186:1.0 187:1.0 188:1.0 189:1.0 190:1.0 191:1.0 192:1.0 193:1.0 194:1.0 195:1.0 196:1.0 197:1.0 198:1.0 199:1.0 200:1.0 201:1.0 202:1.0 203:1.0 204:1.0 205:1.0 206:1.0 207:1.0 208:1.0 209:1.0 210:1.0 211:1.0 212:1.0 213:1.0 214:1.0 215:1.0 216:1.0 217:1.0 218:1.0 219:1.0 220:1.0 221:1.0 222:1.0 223:1.0 224:1.0 225:1.0 226:1.0 227:1.0 228:1.0 230:1.0 231:1.0 232:1.0 233:1.0 234:1.0 235:1.0 236:1.0 237:1.0 238:1.0 239:1.0 240:1.0 241:1.0 242:1.0 243:1.0 244:1.0 245:1.0 246:1.0 247:1.0 248:1.0 249:1.0 250:1.0 251:1.0 252:1.0 253:1.0 254:1.0 255:1.0 256:1.0 257:1.0 258:1.0 259:1.0 260:1.0 261:1.0 262:1.0 263:1.0 264:1.0 265:1.0 266:1.0 267:1.0 268:1.0 269:1.0 270:1.0 271:1.0 272:1.0 273:1.0 274:1.0 275:1.0 276:1.0 278:1.0 279:1.0 280:1.0 281:1.0 282:1.0 283:1.0 284:1.0 285:1.0 286:1.0 287:1.0 288:1.0 289:1.0 290:1.0 291:1.0 292:1.0 293:1.0 294:1.0 295:1.0 296:1.0 297:1.0 298:1.0 299:1.0 300:1.0 301:1.0 302:1.0 303:1.0 304:1.0 305:1.0 306:1.0 307:1.0 308:1.0 309:1.0 310:1.0 311:1.0 312:1.0 313:1.0 314:1.0 315:1.0 316:1.0 317:1.0 318:1.0 319:1.0 320:1.0 321:1.0 322:1.0 323:1.0 324:1.0 325:1.0 326:1.0 327:1.0 328:1.0 329:1.0 330:1.0 331:1.0 332:1.0 333:1.0 334:1.0 335:1.0 336:1.0 338:1.0 339:1.0 340:1.0 341:1.0 342:1.0 344:1.0 345:1.0 346:1.0 347:1.0 348:1.0 349:1.0 350:1.0 351:1.0 352:1.0 353:1.0 354:1.0 355:1.0 356:1.0 357:1.0 358:1.0 359:1.0 360:1.0 361:1.0 362:1.0 363:1.0 364:1.0 365:1.0 366:1.0 367:1.0 368:1.0 369:1.0 370:1.0 371:1.0 372:1.0 373:1.0 374:1.0 375:1.0 376:1.0 377:1.0 378:1.0 379:1.0 380:1.0 381:1.0 382:1.0 383:1.0 384:1.0 385:1.0 386:1.0 387:1.0 388:1.0 390:1.0 391:1.0 392:1.0 393:1.0 394:1.0 395:1.0 396:1.0 397:1.0 398:1.0 399:1.0 400:1.0 401:1.0 402:1.0 403:1.0 404:1.0 405:1.0 406:1.0 407:1.0 408:1.0 409:1.0 410:1.0 411:1.0 412:1.0 413:1.0 414:1.0 415:1.0 416:1.0 417:1.0 418:1.0 419:1.0 420:1.0 421:1.0 422:1.0 423:1.0 424:1.0 425:1.0 426:1.0 427:1.0 428:1.0 429:1.0 430:1.0 431:1.0 432:1.0 433:1.0 434:1.0 435:1.0 436:1.0 437:1.0 438:1.0 439:1.0 440:1.0 441:1.0 442:1.0 443:1.0 444:1.0 445:1.0 446:1.0 447:1.0 448:1.0 449:1.0 450:1.0 451:1.0 452:1.0 453:1.0 454:1.0 455:1.0 456:1.0 457:1.0 458:1.0 459:1.0 460:1.0 461:1.0 462:1.0 463:1.0 464:1.0 465:1.0 466:1.0 467:1.0 468:1.0 469:1.0 470:1.0 471:1.0 472:1.0 473:1.0 474:1.0 475:1.0 476:1.0 477:1.0 478:1.0 479:1.0 480:1.0 481:1.0 482:1.0 483:1.0 485:1.0 486:1.0 487:1.0 488:1.0 489:1.0 490:1.0 491:1.0 492:1.0 493:1.0 494:1.0 495:1.0 496:1.0 498:1.0 499:1.0 500:1.0 501:1.0 502:1.0 503:1.0 504:1.0 505:1.0 506:1.0 507:1.0 508:1.0 509:1.0 510:1.0 511:1.0 512:1.0 513:1.0 514:1.0 515:1.0 516:1.0 517:1.0 518:1.0 519:1.0 520:1.0 521:1.0 522:1.0 523:1.0 525:1.0 526:1.0 527:1.0 528:1.0 529:1.0 530:1.0 531:1.0 532:1.0 533:1.0 534:1.0 535:1.0 536:1.0 537:1.0 538:1.0 539:1.0 540:1.0 541:1.0 542:1.0 543:1.0 544:1.0 545:1.0 546:1.0 
-0.015403099798624025 0.02509617468677649 0.015632841944563713 0.012661641886665014 0.013909458627128623 0.012861297143141983 0.010402239173408006 0.009737861105910533 0.010083004469471434 0.011821907978308704 0.009049171454569807 0.009055365735300783 0.010322274983036667 0.00812818763095627 0.008647938790919558 0.008276467558788102 0.00874067628742122 0.009603016885285153 0.012326902162361642 0.010593409378632918 0.0169995362065012 0.023724813020844646 0.010904761049024169 0.01650287017386233 0.014575546371704011 0.020364786221949323 0.012455024998992743 0.011968480469038204 0.012654478441083184 0.007048405085400178 0.007918629125997743 0.007759028738572967 0.009206829709895515 0.01197382917341918 0.02016299983693863 0.012164983128733573 0.0067908252568630485 0.01054060148465247 0.01897717387905063 0.02575802953589483 0.02568129735694558 0.011742079883267214 1:1.0 2:1.0 3:-0.9540229885057472 4:1.0 5:-0.28205128205128205 6:-0.19047619047619047 7:1.0 8:1.0 9:1.0 10:1.0 11:1.0 12:1.0 13:1.0 14:1.0 15:1.0 16:1.0 17:1.0 18:1.0 19:1.0 20:1.0 21:1.0 22:1.0 23:-1.0 24:-1.0 25:-1.0 26:-1.0 27:-1.0 28:-0.9534883720930233 29:-1.0 30:-1.0 31:-1.0 32:-1.0 33:-1.0 34:-1.0 35:-1.0 36:-1.0 37:-0.9058823529411765 38:1.0 39:1.0 40:1.0 41:1.0 42:1.0 43:1.0 44:1.0 45:1.0 46:1.0 47:1.0 48:1.0 49:1.0 50:1.0 51:1.0 52:1.0 53:1.0 54:1.0 55:1.0 56:1.0 57:1.0 58:1.0 59:1.0 60:1.0 61:1.0 62:1.0 63:1.0 64:1.0 65:1.0 66:1.0 67:1.0 68:1.0 69:1.0 70:1.0 71:1.0 72:1.0 73:1.0 74:1.0 75:1.0 76:1.0 77:1.0 78:1.0 79:1.0 80:1.0 81:1.0 82:1.0 83:1.0 84:1.0 85:1.0 86:1.0 87:1.0 88:1.0 89:1.0 90:1.0 91:1.0 92:1.0 93:1.0 94:1.0 95:1.0 96:1.0 97:1.0 98:1.0 99:1.0 100:1.0 101:1.0 102:1.0 103:1.0 104:1.0 105:1.0 106:1.0 107:1.0 108:1.0 109:1.0 110:1.0 111:1.0 112:1.0 113:1.0 114:1.0 115:1.0 116:1.0 117:1.0 118:1.0 119:1.0 120:1.0 121:1.0 122:1.0 123:1.0 124:1.0 125:1.0 126:1.0 127:1.0 128:1.0 129:1.0 130:1.0 131:1.0 132:1.0 133:1.0 134:1.0 135:1.0 136:1.0 137:1.0 138:1.0 139:1.0 140:1.0 141:1.0 142:1.0 143:1.0 144:1.0 145:1.0 146:1.0 147:1.0 148:1.0 149:1.0 150:1.0 151:1.0 152:1.0 153:1.0 154:1.0 155:1.0 156:1.0 157:1.0 158:1.0 159:1.0 160:1.0 161:1.0 162:1.0 163:1.0 164:1.0 165:1.0 166:1.0 167:1.0 168:1.0 169:1.0 170:1.0 171:1.0 172:1.0 173:1.0 174:1.0 175:1.0 176:1.0 177:1.0 178:1.0 179:1.0 180:1.0 181:1.0 182:1.0 183:1.0 184:1.0 185:1.0 186:1.0 187:1.0 188:1.0 189:1.0 190:1.0 191:1.0 192:1.0 193:1.0 194:1.0 195:1.0 196:1.0 197:1.0 198:1.0 199:1.0 200:1.0 201:1.0 202:1.0 203:1.0 204:1.0 205:1.0 206:1.0 207:1.0 208:1.0 209:1.0 210:1.0 211:1.0 212:1.0 213:1.0 214:1.0 215:1.0 216:1.0 217:1.0 218:1.0 219:1.0 220:1.0 221:1.0 222:1.0 223:1.0 224:1.0 225:1.0 226:1.0 227:1.0 228:1.0 230:1.0 231:1.0 232:1.0 233:1.0 234:1.0 235:1.0 236:1.0 237:1.0 238:1.0 239:1.0 240:1.0 241:1.0 242:1.0 243:1.0 244:1.0 245:1.0 246:1.0 247:1.0 248:1.0 249:1.0 250:1.0 251:1.0 252:1.0 253:1.0 254:1.0 255:1.0 256:1.0 257:1.0 258:1.0 259:1.0 260:1.0 261:1.0 262:1.0 263:1.0 264:1.0 265:1.0 266:1.0 267:1.0 268:1.0 269:1.0 270:1.0 271:1.0 272:1.0 273:1.0 274:1.0 275:1.0 276:1.0 278:1.0 279:1.0 280:1.0 281:1.0 282:1.0 283:1.0 284:1.0 285:1.0 286:1.0 287:1.0 288:1.0 289:1.0 290:1.0 291:1.0 292:1.0 293:1.0 294:1.0 295:1.0 296:1.0 297:1.0 298:1.0 299:1.0 300:1.0 301:1.0 302:1.0 303:1.0 304:1.0 305:1.0 306:1.0 307:1.0 308:1.0 309:1.0 310:1.0 311:1.0 312:1.0 313:1.0 314:1.0 315:1.0 316:1.0 317:1.0 318:1.0 319:1.0 320:1.0 321:1.0 322:1.0 323:1.0 324:1.0 325:1.0 326:1.0 327:1.0 328:1.0 329:1.0 330:1.0 331:1.0 332:1.0 333:1.0 334:1.0 335:1.0 336:1.0 338:1.0 339:1.0 340:1.0 341:1.0 342:1.0 344:1.0 345:1.0 346:1.0 347:1.0 348:1.0 349:1.0 350:1.0 351:1.0 352:1.0 353:1.0 354:1.0 355:1.0 356:1.0 357:1.0 358:1.0 359:1.0 360:1.0 361:1.0 362:1.0 363:1.0 364:1.0 365:1.0 366:1.0 367:1.0 368:1.0 369:1.0 370:1.0 371:1.0 372:1.0 373:1.0 374:1.0 375:1.0 376:1.0 377:1.0 378:1.0 379:1.0 380:1.0 381:1.0 382:1.0 383:1.0 384:1.0 385:1.0 386:1.0 387:1.0 388:1.0 390:1.0 391:1.0 392:1.0 393:1.0 394:1.0 395:1.0 396:1.0 397:1.0 398:1.0 399:1.0 400:1.0 401:1.0 402:1.0 403:1.0 404:1.0 405:1.0 406:1.0 407:1.0 408:1.0 409:1.0 410:1.0 411:1.0 412:1.0 413:1.0 414:1.0 415:1.0 416:1.0 417:1.0 418:1.0 419:1.0 420:1.0 421:1.0 422:1.0 423:1.0 424:1.0 425:1.0 426:1.0 427:1.0 428:1.0 429:1.0 430:1.0 431:1.0 432:1.0 433:1.0 434:1.0 435:1.0 436:1.0 437:1.0 438:1.0 439:1.0 440:1.0 441:1.0 442:1.0 443:1.0 444:1.0 445:1.0 446:1.0 447:1.0 448:1.0 449:1.0 450:1.0 451:1.0 452:1.0 453:1.0 454:1.0 455:1.0 456:1.0 457:1.0 458:1.0 459:1.0 460:1.0 461:1.0 462:1.0 463:1.0 464:1.0 465:1.0 466:1.0 467:1.0 468:1.0 469:1.0 470:1.0 471:1.0 472:1.0 473:1.0 474:1.0 475:1.0 476:1.0 477:1.0 478:1.0 479:1.0 480:1.0 481:1.0 482:1.0 483:1.0 485:1.0 486:1.0 487:1.0 488:1.0 489:1.0 490:1.0 491:1.0 492:1.0 493:1.0 494:1.0 495:1.0 496:1.0 498:1.0 499:1.0 500:1.0 501:1.0 502:1.0 503:1.0 504:1.0 505:1.0 506:1.0 507:1.0 508:1.0 509:1.0 510:1.0 511:1.0 512:1.0 513:1.0 514:1.0 515:1.0 516:1.0 517:1.0 518:1.0 519:1.0 520:1.0 521:1.0 522:1.0 523:1.0 525:1.0 526:1.0 527:1.0 528:1.0 529:1.0 530:1.0 531:1.0 532:1.0 533:1.0 534:1.0 535:1.0 536:1.0 537:1.0 538:1.0 539:1.0 540:1.0 541:1.0 542:1.0 543:1.0 544:1.0 545:1.0 546:1.0 
-0.022828432154593518 -0.02509617468677649 0.0206809411948848 0.01819106390632668 0.020346804729539255 0.017635883166579658 0.013482543217130334 0.012387145161479336 0.013522145980413356 0.01674691399983339 0.011293795856919519 0.011303438048583948 0.013348514444120815 0.009894568254041107 0.010675618617695046 0.010115172449984411 0.010817298963232143 0.011617258691406285 0.016903233527497674 0.013191886635444901 0.024912057426671443 0.04383315363809289 0.01433899416121829 0.0258850387667321 0.019818963254355056 0.03684426529040383 0.01714507861213184 0.016236483429798564 0.0175253188658175 0.00833938189625247 0.009585762708492826 0.00935287405074094 0.011540421587434858 0.016246328611347442 0.036189100419010765 0.01660025147597756 0.00798120636343376 0.015125658643315939 0.04099592267724594 0.05931289143105383 0.058907705030021934 0.01582261366709159 1:1.0 2:1.0 3:1.0 4:1.0 5:-0.6666666666666667 6:-1.0 7:1.0 8:1.0 9:1.0 10:1.0 11:1.0 12:1.0 13:1.0 14:1.0 15:1.0 16:1.0 17:1.0 18:1.0 19:1.0 20:1.0 21:1.0 22:1.0 23:1.0 24:1.0 25:1.0 26:1.0 27:1.0 28:1.0 29:1.0 30:1.0 31:1.0 32:1.0 33:1.0 34:1.0 35:1.0 36:1.0 37:1.0 38:-1.0 39:-1.0 40:-0.9518072289156626 41:-0.9529411764705882 42:1.0 43:1.0 44:1.0 45:1.0 46:1.0 47:1.0 48:1.0 49:1.0 50:1.0 51:1.0 52:1.0 53:1.0 54:1.0 55:1.0 56:1.0 57:1.0 58:1.0 59:1.0 60:1.0 61:1.0 62:1.0 63:1.0 64:1.0 65:1.0 66:1.0 67:1.0 68:1.0 69:1.0 70:1.0 71:1.0 72:1.0 73:1.0 74:1.0 75:1.0 76:1.0 77:1.0 78:1.0 79:1.0 80:1.0 81:1.0 82:1.0 83:1.0 84:1.0 85:1.0 86:1.0 87:1.0 88:1.0 89:1.0 90:1.0 91:1.0 92:1.0 93:1.0 94:1.0 95:1.0 96:1.0 97:1.0 98:1.0 99:1.0 100:1.0 101:1.0 102:1.0 103:1.0 104:1.0 105:1.0 106:1.0 107:1.0 108:1.0 109:1.0 110:1.0 111:1.0 112:1.0 113:1.0 114:1.0 115:1.0 116:1.0 117:1.0 118:1.0 119:1.0 120:1.0 121:1.0 122:1.0 123:1.0 124:1.0 125:1.0 126:1.0 127:1.0 128:1.0 129:1.0 130:1.0 131:1.0 132:1.0 133:1.0 134:1.0 135:1.0 136:1.0 137:1.0 138:1.0 139:1.0 140:1.0 141:1.0 142:1.0 143:1.0 144:1.0 145:1.0 146:1.0 147:1.0 148:1.0 149:1.0 150:1.0 151:1.0 152:1.0 153:1.0 154:1.0 155:1.0 156:1.0 157:1.0 158:1.0 159:1.0 160:1.0 161:1.0 162:1.0 163:1.0 164:1.0 165:1.0 166:1.0 167:1.0 168:1.0 169:1.0 170:1.0 171:1.0 172:1.0 173:1.0 174:1.0 175:1.0 176:1.0 177:1.0 178:1.0 179:1.0 180:1.0 181:1.0 182:1.0 183:1.0 184:1.0 185:1.0 186:1.0 187:1.0 188:1.0 189:1.0 190:1.0 191:1.0 192:1.0 193:1.0 194:1.0 195:1.0 196:1.0 197:1.0 198:1.0 199:1.0 200:1.0 201:1.0 202:1.0 203:1.0 204:1.0 205:1.0 206:1.0 207:1.0 208:1.0 209:1.0 210:1.0 211:1.0 212:1.0 213:1.0 214:1.0 215:1.0 216:1.0 217:1.0 218:1.0 219:1.0 220:1.0 221:1.0 222:1.0 223:1.0 224:1.0 225:1.0 226:1.0 227:1.0 228:1.0 230:1.0 231:1.0 232:1.0 233:1.0 234:1.0 235:1.0 236:1.0 237:1.0 238:1.0 239:1.0 240:1.0 241:1.0 242:1.0 243:1.0 244:1.0 245:1.0 246:1.0 247:1.0 248:1.0 249:1.0 250:1.0 251:1.0 252:1.0 253:1.0 254:1.0 255:1.0 256:1.0 257:1.0 258:1.0 259:1.0 260:1.0 261:1.0 262:1.0 263:1.0 264:1.0 265:1.0 266:1.0 267:1.0 268:1.0 269:1.0 270:1.0 271:1.0 272:1.0 273:1.0 274:1.0 275:1.0 276:1.0 278:1.0 279:1.0 280:1.0 281:1.0 282:1.0 283:1.0 284:1.0 285:1.0 286:1.0 287:1.0 288:1.0 289:1.0 290:1.0 291:1.0 292:1.0 293:1.0 294:1.0 295:1.0 296:1.0 297:1.0 298:1.0 299:1.0 300:1.0 301:1.0 302:1.0 303:1.0 304:1.0 305:1.0 306:1.0 307:1.0 308:1.0 309:1.0 310:1.0 311:1.0 312:1.0 313:1.0 314:1.0 315:1.0 316:1.0 317:1.0 318:1.0 319:1.0 320:1.0 321:1.0 322:1.0 323:1.0 324:1.0 325:1.0 326:1.0 327:1.0 328:1.0 329:1.0 330:1.0 331:1.0 332:1.0 333:1.0 334:1.0 335:1.0 336:1.0 338:1.0 339:1.0 340:1.0 341:1.0 342:1.0 344:1.0 345:1.0 346:1.0 347:1.0 348:1.0 349:1.0 350:1.0 351:1.0 352:1.0 353:1.0 354:1.0 355:1.0 356:1.0 357:1.0 358:1.0 359:1.0 360:1.0 361:1.0 362:1.0 363:1.0 364:1.0 365:1.0 366:1.0 367:1.0 368:1.0 369:1.0 370:1.0 371:1.0 372:1.0 373:1.0 374:1.0 375:1.0 376:1.0 377:1.0 378:1.0 379:1.0 380:1.0 381:1.0 382:1.0 383:1.0 384:1.0 385:1.0 386:1.0 387:1.0 388:1.0 390:1.0 391:1.0 392:1.0 393:1.0 394:1.0 395:1.0 396:1.0 397:1.0 398:1.0 399:1.0 400:1.0 401:1.0 402:1.0 403:1.0 404:1.0 405:1.0 406:1.0 407:1.0 408:1.0 409:1.0 410:1.0 411:1.0 412:1.0 413:1.0 414:1.0 415:1.0 416:1.0 417:1.0 418:1.0 419:1.0 420:1.0 421:1.0 422:1.0 423:1.0 424:1.0 425:1.0 426:1.0 427:1.0 428:1.0 429:1.0 430:1.0 431:1.0 432:1.0 433:1.0 434:1.0 435:1.0 436:1.0 437:1.0 438:1.0 439:1.0 440:1.0 441:1.0 442:1.0 443:1.0 444:1.0 445:1.0 446:1.0 447:1.0 448:1.0 449:1.0 450:1.0 451:1.0 452:1.0 453:1.0 454:1.0 455:1.0 456:1.0 457:1.0 458:1.0 459:1.0 460:1.0 461:1.0 462:1.0 463:1.0 464:1.0 465:1.0 466:1.0 467:1.0 468:1.0 469:1.0 470:1.0 471:1.0 472:1.0 473:1.0 474:1.0 475:1.0 476:1.0 477:1.0 478:1.0 479:1.0 480:1.0 481:1.0 482:1.0 483:1.0 485:1.0 486:1.0 487:1.0 488:1.0 489:1.0 490:1.0 491:1.0 492:1.0 493:1.0 494:1.0 495:1.0 496:1.0 498:1.0 499:1.0 500:1.0 501:1.0 502:1.0 503:1.0 504:1.0 505:1.0 506:1.0 507:1.0 508:1.0 509:1.0 510:1.0 511:1.0 512:1.0 513:1.0 514:1.0 515:1.0 516:1.0 517:1.0 518:1.0 519:1.0 520:1.0 521:1.0 522:1.0 523:1.0 525:1.0 526:1.0 527:1.0 528:1.0 529:1.0 530:1.0 531:1.0 532:1.0 533:1.0 534:1.0 535:1.0 536:1.0 537:1.0 538:1.0 539:1.0 540:1.0 541:1.0 542:1.0 543:1.0 544:1.0 545:1.0 546:1.0 
-0.012397211686702546 -0.015632841944563713 -0.0206809411948848 0.013893063940401604 0.017153614047871815 0.014482441012604073 0.011134224352174212 0.009310304951696826 0.009627914370091176 0.011600203626621277 0.008734208762196187 0.00873997455463951 0.009544445548046851 0.007638030810857808 0.008095225625262796 0.007768824367858386 0.008176432073332376 0.008625370983344411 0.011233613076627721 0.009464103240981693 0.014285820163810855 0.019032362799769297 0.010040350762693454 0.014600556610574888 0.012450983372343983 0.017544019330117 0.011339918985747236 0.01136368759430581 0.011505032222727425 0.006676850657018161 0.007452694562566995 0.00731115888829688 0.008582944540893141 0.010939652300138014 0.017394073869608145 0.011098985144674974 0.006445266668777848 0.015140237092934017 0.030806460256112545 0.021405031828618647 0.0213520024344202 0.010745882570537891 1:1.0 2:1.0 3:1.0 4:1.0 5:1.0 6:1.0 7:1.0 8:1.0 9:1.0 10:1.0 11:1.0 12:1.0 13:1.0 14:1.0 15:1.0 16:1.0 17:1.0 18:1.0 19:1.0 20:1.0 21:1.0 22:1.0 23:1.0 24:1.0 25:1.0 26:1.0 27:1.0 28:-1.0 29:1.0 30:1.0 31:1.0 32:1.0 33:-0.7173913043478262 34:-0.4565217391304348 35:1.0 36:1.0 37:1.0 38:1.0 39:1.0 40:1.0 41:-1.0 42:-0.9333333333333333 43:-1.0 44:-0.6888888888888889 45:-1.0 46:-0.6190476190476191 47:-0.5056179775280899 48:-0.75 49:-1.0 50:-1.0 51:-0.7241379310344828 52:-0.8837209302325582 53:-0.9318181818181819 54:-1.0 55:-1.0 56:-0.7333333333333334 57:-0.9550561797752809 58:-1.0 59:-0.9130434782608696 60:-0.75 61:-0.6444444444444444 62:1.0 63:1.0 64:1.0 65:1.0 66:1.0 67:1.0 68:1.0 69:1.0 70:1.0 71:1.0 72:1.0 73:1.0 74:1.0 75:1.0 76:1.0 77:1.0 78:1.0 79:1.0 80:1.0 81:1.0 82:1.0 83:1.0 84:1.0 85:1.0 86:1.0 87:1.0 88:1.0 89:1.0 90:1.0 91:1.0 92:1.0 93:1.0 94:1.0 95:1.0 96:1.0 97:1.0 98:1.0 99:1.0 100:1.0 101:1.0 102:1.0 103:1.0 104:1.0 105:1.0 106:1.0 107:1.0 108:1.0 109:1.0 110:1.0 111:1.0 112:1.0 113:1.0 114:1.0 115:1.0 116:1.0 117:1.0 118:1.0 119:1.0 120:1.0 121:1.0 122:1.0 123:1.0 124:1.0 125:1.0 126:1.0 127:1.0 128:1.0 129:1.0 130:1.0 131:1.0 132:1.0 133:1.0 134:1.0 135:1.0 136:1.0 137:1.0 138:1.0 139:1.0 140:1.0 141:1.0 142:1.0 143:1.0 144:1.0 145:1.0 146:1.0 147:1.0 148:1.0 149:1.0 150:1.0 151:1.0 152:1.0 153:1.0 154:1.0 155:1.0 156:1.0 157:1.0 158:1.0 159:1.0 160:1.0 161:1.0 162:1.0 163:1.0 164:1.0 165:1.0 166:1.0 167:1.0 168:1.0 169:1.0 170:1.0 171:1.0 172:1.0 173:1.0 174:1.0 175:1.0 176:1.0 177:1.0 178:1.0 179:1.0 180:1.0 181:1.0 182:1.0 183:1.0 184:1.0 185:1.0 186:1.0 187:1.0 188:1.0 189:1.0 190:1.0 191:1.0 192:1.0 193:1.0 194:1.0 195:1.0 196:1.0 197:1.0 198:1.0 199:1.0 200:1.0 201:1.0 202:1.0 203:1.0 204:1.0 205:1.0 206:1.0 207:1.0 208:1.0 209:1.0 210:1.0 211:1.0 212:1.0 213:1.0 214:1.0 215:1.0 216:1.0 217:1.0 218:1.0 219:1.0 220:1.0 221:1.0 222:1.0 223:1.0 224:1.0 225:1.0 226:1.0 227:1.0 228:1.0 230:1.0 231:1.0 232:1.0 233:1.0 234:1.0 235:1.0 236:1.0 237:1.0 238:1.0 239:1.0 240:1.0 241:1.0 242:1.0 243:1.0 244:1.0 245:1.0 246:1.0 247:1.0 248:1.0 249:1.0 250:1.0 251:1.0 252:1.0 253:1.0 254:1.0 255:1.0 256:1.0 257:1.0 258:1.0 259:1.0 260:1.0 261:1.0 262:1.0 263:1.0 264:1.0 265:1.0 266:1.0 267:1.0 268:1.0 269:1.0 270:1.0 271:1.0 272:1.0 273:1.0 274:1.0 275:1.0 276:1.0 278:1.0 279:1.0 280:1.0 281:1.0 282:1.0 283:1.0 284:1.0 285:1.0 286:1.0 287:1.0 288:1.0 289:1.0 290:1.0 291:1.0 292:1.0 293:1.0 294:1.0 295:1.0 296:1.0 297:1.0 298:1.0 299:1.0 300:1.0 301:1.0 302:1.0 303:1.0 304:1.0 305:1.0 306:1.0 307:1.0 308:1.0 309:1.0 310:1.0 311:1.0 312:1.0 313:1.0 314:1.0 315:1.0 316:1.0 317:1.0 318:1.0 319:1.0 320:1.0 321:1.0 322:1.0 323:1.0 324:1.0 325:1.0 326:1.0 327:1.0 328:1.0 329:1.0 330:1.0 331:1.0 332:1.0 333:1.0 334:1.0 335:1.0 336:1.0 338:1.0 339:1.0 340:1.0 341:1.0 342:1.0 344:1.0 345:1.0 346:1.0 347:1.0 348:1.0 349:1.0 350:1.0 351:1.0 352:1.0 353:1.0 354:1.0 355:1.0 356:1.0 357:1.0 358:1.0 359:1.0 360:1.0 361:1.0 362:1.0 363:1.0 364:1.0 365:1.0 366:1.0 367:1.0 368:1.0 369:1.0 370:1.0 371:1.0 372:1.0 373:1.0 374:1.0 375:1.0 376:1.0 377:1.0 378:1.0 379:1.0 380:1.0 381:1.0 382:1.0 383:1.0 384:1.0 385:1.0 386:1.0 387:1.0 388:1.0 390:1.0 391:1.0 392:1.0 393:1.0 394:1.0 395:1.0 396:1.0 397:1.0 398:1.0 399:1.0 400:1.0 401:1.0 402:1.0 403:1.0 404:1.0 405:1.0 406:1.0 407:1.0 408:1.0 409:1.0 410:1.0 411:1.0 412:1.0 413:1.0 414:1.0 415:1.0 416:1.0 417:1.0 418:1.0 419:1.0 420:1.0 421:1.0 422:1.0 423:1.0 424:1.0 425:1.0 426:1.0 427:1.0 428:1.0 429:1.0 430:1.0 431:1.0 432:1.0 433:1.0 434:1.0 435:1.0 436:1.0 437:1.0 438:1.0 439:1.0 440:1.0 441:1.0 442:1.0 443:1.0 444:1.0 445:1.0 446:1.0 447:1.0 448:1.0 449:1.0 450:1.0 451:1.0 452:1.0 453:1.0 454:1.0 455:1.0 456:1.0 457:1.0 458:1.0 459:1.0 460:1.0 461:1.0 462:1.0 463:1.0 464:1.0 465:1.0 466:1.0 467:1.0 468:1.0 469:1.0 470:1.0 471:1.0 472:1.0 473:1.0 474:1.0 475:1.0 476:1.0 477:1.0 478:1.0 479:1.0 480:1.0 481:1.0 482:1.0 483:1.0 485:1.0 486:1.0 487:1.0 488:1.0 489:1.0 490:1.0 491:1.0 492:1.0 493:1.0 494:1.0 495:1.0 496:1.0 498:1.0 499:1.0 500:1.0 501:1.0 502:1.0 503:1.0 504:1.0 505:1.0 506:1.0 507:1.0 508:1.0 509:1.0 510:1.0 511:1.0 512:1.0 513:1.0 514:1.0 515:1.0 516:1.0 517:1.0 518:1.0 519:1.0 520:1.0 521:1.0 522:1.0 523:1.0 525:1.0 526:1.0 527:1.0 528:1.0 529:1.0 530:1.0 531:1.0 532:1.0 533:1.0 534:1.0 535:1.0 536:1.0 537:1.0 538:1.0 539:1.0 540:1.0 541:1.0 542:1.0 543:1.0 544:1.0 545:1.0 546:1.0 
-0.01170696712452979 -0.012661641886665014 -0.01819106390632668 -0.013893063940401604 0.029292110313829993 0.017531010167750497 0.014525910850591201 0.01039039776058517 0.011991430928142902 0.015648071210949067 0.008590295493266942 0.008598942819182087 0.009130002791828247 0.007370296678733068 0.007795108169971801 0.007492006818896831 0.007870377042171655 0.008285476748678591 0.010663882671255747 0.00905645942958788 0.013376959770736677 0.014816951772106166 0.009582751982247577 0.013652508494278471 0.011754897754487367 0.016192891494580957 0.010759629586091812 0.010394590295865796 0.010908158815442128 0.0064713542643831026 0.007197578900339627 0.0070654783633740505 0.008246324725711808 0.010398624517879936 0.016065052480576866 0.010542490405973392 0.006253571165479554 0.009659750841631733 0.015303160713543493 0.0194273070816471 0.01938362578150002 0.010223390185757577 1:1.0 2:1.0 3:1.0 4:1.0 5:1.0 6:1.0 7:1.0 8:1.0 9:1.0 10:1.0 11:1.0 12:1.0 13:1.0 14:1.0 15:1.0 16:1.0 17:1.0 18:1.0 19:1.0 20:1.0 21:1.0 22:1.0 23:1.0 24:1.0 25:1.0 26:1.0 27:1.0 28:1.0 29:1.0 30:1.0 31:1.0 32:1.0 33:1.0 34:1.0 35:1.0 36:1.0 37:1.0 38:-0.021739130434782594 39:1.0 40:1.0 41:1.0 42:1.0 43:1.0 44:1.0 45:1.0 46:1.0 47:-1.0 48:1.0 49:1.0 50:1.0 51:1.0 52:1.0 53:1.0 54:1.0 55:1.0 56:-0.9555555555555556 57:-0.5280898876404494 58:1.0 59:-1.0 60:1.0 61:-0.022222222222222254 62:-0.3731343283582089 63:-0.045454545454545414 64:-0.8765432098765432 65:-0.8666666666666667 66:-1.0 67:-1.0 68:-0.8666666666666667 69:-0.8876404494382022 70:-0.9743589743589743 71:1.0 72:-1.0 73:-0.9743589743589743 74:-0.9012345679012346 75:-1.0 76:-1.0 77:-1.0 78:-1.0 79:-1.0 80:-1.0 81:-1.0 82:-0.7142857142857143 83:-1.0 84:1.0 85:1.0 86:1.0 87:1.0 88:1.0 89:1.0 90:1.0 91:1.0 92:1.0 93:1.0 94:1.0 95:1.0 96:1.0 97:1.0 98:1.0 99:1.0 100:1.0 101:1.0 102:1.0 103:1.0 104:1.0 105:1.0 106:1.0 107:1.0 108:1.0 109:1.0 110:1.0 111:1.0 112:1.0 113:1.0 114:1.0 115:1.0 116:1.0 117:1.0 118:1.0 119:1.0 120:1.0 121:1.0 122:1.0 123:1.0 124:1.0 125:1.0 126:1.0 127:1.0 128:1.0 129:1.0 130:1.0 131:1.0 132:1.0 133:1.0 134:1.0 135:1.0 136:1.0 137:1.0 138:1.0 139:1.0 140:1.0 141:1.0 142:1.0 143:1.0 144:1.0 145:1.0 146:1.0 147:1.0 148:1.0 149:1.0 150:1.0 151:1.0 152:1.0 153:1.0 154:1.0 155:1.0 156:1.0 157:1.0 158:1.0 159:1.0 160:1.0 161:1.0 162:1.0 163:1.0 164:1.0 165:1.0 166:1.0 167:1.0 168:1.0 169:1.0 170:1.0 171:1.0 172:1.0 173:1.0 174:1.0 175:1.0 176:1.0 177:1.0 178:1.0 179:1.0 180:1.0 181:1.0 182:1.0 183:1.0 184:1.0 185:1.0 186:1.0 187:1.0 188:1.0 189:1.0 190:1.0 191:1.0 192:1.0 193:1.0 194:1.0 195:1.0 196:1.0 197:1.0 198:1.0 199:1.0 200:1.0 201:1.0 202:1.0 203:1.0 204:1.0 205:1.0 206:1.0 207:1.0 208:1.0 209:1.0 210:1.0 211:1.0 212:1.0 213:1.0 214:1.0 215:1.0 216:1.0 217:1.0 218:1.0 219:1.0 220:1.0 221:1.0 222:1.0 223:1.0 224:1.0 225:1.0 226:1.0 227:1.0 228:1.0 230:1.0 231:1.0 232:1.0 233:1.0 234:1.0 235:1.0 236:1.0 237:1.0 238:1.0 239:1.0 240:1.0 241:1.0 242:1.0 243:1.0 244:1.0 245:1.0 246:1.0 247:1.0 248:1.0 249:1.0 250:1.0 251:1.0 252:1.0 253:1.0 254:1.0 255:1.0 256:1.0 257:1.0 258:1.0 259:1.0 260:1.0 261:1.0 262:1.0 263:1.0 264:1.0 265:1.0 266:1.0 267:1.0 268:1.0 269:1.0 270:1.0 271:1.0 272:1.0 273:1.0 274:1.0 275:1.0 276:1.0 278:1.0 279:1.0 280:1.0 281:1.0 282:1.0 283:1.0 284:1.0 285:1.0 286:1.0 287:1.0 288:1.0 289:1.0 290:1.0 291:1.0 292:1.0 293:1.0 294:1.0 295:1.0 296:1.0 297:1.0 298:1.0 299:1.0 300:1.0 301:1.0 302:1.0 303:1.0 304:1.0 305:1.0 306:1.0 307:1.0 308:1.0 309:1.0 310:1.0 311:1.0 312:1.0 313:1.0 314:1.0 315:1.0 316:1.0 317:1.0 318:1.0 319:1.0 320:1.0 321:1.0 322:1.0 323:1.0 324:1.0 325:1.0 326:1.0 327:1.0 328:1.0 329:1.0 330:1.0 331:1.0 332:1.0 333:1.0 334:1.0 335:1.0 336:1.0 338:1.0 339:1.0 340:1.0 341:1.0 342:1.0 344:1.0 345:1.0 346:1.0 347:1.0 348:1.0 349:1.0 350:1.0 351:1.0 352:1.0 353:1.0 354:1.0 355:1.0 356:1.0 357:1.0 358:1.0 359:1.0 360:1.0 361:1.0 362:1.0 363:1.0 364:1.0 365:1.0 366:1.0 367:1.0 368:1.0 369:1.0 370:1.0 371:1.0 372:1.0 373:1.0 374:1.0 375:1.0 376:1.0 377:1.0 378:1.0 379:1.0 380:1.0 381:1.0 382:1.0 383:1.0 384:1.0 385:1.0 386:1.0 387:1.0 388:1.0 390:1.0 391:1.0 392:1.0 393:1.0 394:1.0 395:1.0 396:1.0 397:1.0 398:1.0 399:1.0 400:1.0 401:1.0 402:1.0 403:1.0 404:1.0 405:1.0 406:1.0 407:1.0 408:1.0 409:1.0 410:1.0 411:1.0 412:1.0 413:1.0 414:1.0 415:1.0 416:1.0 417:1.0 418:1.0 419:1.0 420:1.0 421:1.0 422:1.0 423:1.0 424:1.0 425:1.0 426:1.0 427:1.0 428:1.0 429:1.0 430:1.0 431:1.0 432:1.0 433:1.0 434:1.0 435:1.0 436:1.0 437:1.0 438:1.0 439:1.0 440:1.0 441:1.0 442:1.0 443:1.0 444:1.0 445:1.0 446:1.0 447:1.0 448:1.0 449:1.0 450:1.0 451:1.0 452:1.0 453:1.0 454:1.0 455:1.0 456:1.0 457:1.0 458:1.0 459:1.0 460:1.0 461:1.0 462:1.0 463:1.0 464:1.0 465:1.0 466:1.0 467:1.0 468:1.0 469:1.0 470:1.0 471:1.0 472:1.0 473:1.0 474:1.0 475:1.0 476:1.0 477:1.0 478:1.0 479:1.0 480:1.0 481:1.0 482:1.0 483:1.0 485:1.0 486:1.0 487:1.0 488:1.0 489:1.0 490:1.0 491:1.0 492:1.0 493:1.0 494:1.0 495:1.0 496:1.0 498:1.0 499:1.0 500:1.0 501:1.0 502:1.0 503:1.0 504:1.0 505:1.0 506:1.0 507:1.0 508:1.0 509:1.0 510:1.0 511:1.0 512:1.0 513:1.0 514:1.0 515:1.0 516:1.0 517:1.0 518:1.0 519:1.0 520:1.0 521:1.0 522:1.0 523:1.0 525:1.0 526:1.0 527:1.0 528:1.0 529:1.0 530:1.0 531:1.0 532:1.0 533:1.0 534:1.0 535:1.0 536:1.0 537:1.0 538:1.0 539:1.0 540:1.0 541:1.0 542:1.0 543:1.0 544:1.0 545:1.0 546:1.0 
-0.0123081268644551 -0.013909458627128623 -0.020346804729539255 -0.017153614047871815 -0.029292110313829993 0.02399244964170211 0.013040313623363047 0.010065644169894607 0.011169078885028157 0.014045603633476955 0.008666834177499768 0.008675560563583137 0.009491549774732108 0.00760411979551861 0.00805714554079729 0.007733746517300505 0.008137585996835658 0.00858214877435664 0.011160417030671051 0.00941208911152728 0.014167654614994158 0.016572646434362348 0.009981832382711641 0.01447713030477611 0.012361126881490036 0.017366142170449787 0.011265335646357571 0.011207352088638226 0.01142826451717082 0.006650922955609433 0.007420407479285224 0.007280083944913261 0.00854014988525998 0.010870225077484523 0.017219191032231858 0.011027527424950521 0.006421101847595242 0.010182209596657969 0.017119791519726316 0.021140822471414276 0.021089106107139457 0.010678885508646775 1:1.0 2:1.0 3:1.0 4:1.0 5:1.0 6:1.0 7:1.0 8:1.0 9:1.0 10:1.0 11:1.0 12:1.0 13:1.0 14:1.0 15:1.0 16:1.0 17:1.0 18:1.0 19:1.0 20:1.0 21:1.0 22:1.0 23:1.0 24:1.0 25:1.0 26:1.0 27:1.0 28:1.0 29:1.0 30:1.0 31:1.0 32:1.0 33:1.0 34:-0.4565217391304348 35:1.0 36:1.0 37:1.0 38:-0.8478260869565217 39:1.0 40:1.0 41:1.0 42:-0.48888888888888893 43:1.0 44:-0.3555555555555555 45:1.0 46:-1.0 47:-0.5280898876404494 48:1.0 49:1.0 50:-0.9142857142857143 51:-0.4022988505747126 52:1.0 53:1.0 54:1.0 55:1.0 56:-1.0 57:1.0 58:1.0 59:1.0 60:1.0 61:-0.1333333333333333 62:-0.4626865671641791 63:-1.0 64:-1.0 65:-0.8222222222222222 66:1.0 67:1.0 68:-0.7333333333333334 69:-0.8426966292134832 70:1.0 71:1.0 72:-0.7108433734939759 73:-1.0 74:-1.0 75:-0.6799999999999999 76:1.0 77:-0.7108433734939759 78:-0.9770114942528736 79:1.0 80:1.0 81:1.0 82:-1.0 83:1.0 84:-1.0 85:-1.0 86:-1.0 87:1.0 88:1.0 89:1.0 90:1.0 91:1.0 92:1.0 93:1.0 94:1.0 95:1.0 96:1.0 97:1.0 98:1.0 99:1.0 100:1.0 101:1.0 102:1.0 103:1.0 104:1.0 105:1.0 106:1.0 107:1.0 108:1.0 109:1.0 110:1.0 111:1.0 112:1.0 113:1.0 114:1.0 115:1.0 116:1.0 117:1.0 118:1.0 119:1.0 120:1.0 121:1.0 122:1.0 123:1.0 124:1.0 125:1.0 126:1.0 127:1.0 128:1.0 129:1.0 130:1.0 131:1.0 132:1.0 133:1.0 134:1.0 135:1.0 136:1.0 137:1.0 138:1.0 139:1.0 140:1.0 141:1.0 142:1.0 143:1.0 144:1.0 145:1.0 146:1.0 147:1.0 148:1.0 149:1.0 150:1.0 151:1.0 152:1.0 153:1.0 154:1.0 155:1.0 156:1.0 157:1.0 158:1.0 159:1.0 160:1.0 161:1.0 162:1.0 163:1.0 164:1.0 165:1.0 166:1.0 167:1.0 168:1.0 169:1.0 170:1.0 171:1.0 172:1.0 173:1.0 174:1.0 175:1.0 176:1.0 177:1.0 178:1.0 179:1.0 180:1.0 181:1.0 182:1.0 183:1.0 184:1.0 185:1.0 186:1.0 187:1.0 188:1.0 189:1.0 190:1.0 191:1.0 192:1.0 193:1.0 194:1.0 195:1.0 196:1.0 197:1.0 198:1.0 199:1.0 200:1.0 201:1.0 202:1.0 203:1.0 204:1.0 205:1.0 206:1.0 207:1.0 208:1.0 209:1.0 210:1.0 211:1.0 212:1.0 213:1.0 214:1.0 215:1.0 216:1.0 217:1.0 218:1.0 219:1.0 220:1.0 221:1.0 222:1.0 223:1.0 224:1.0 225:1.0 226:1.0 227:1.0 228:1.0 230:1.0 231:1.0 232:1.0 233:1.0 234:1.0 235:1.0 236:1.0 237:1.0 238:1.0 239:1.0 240:1.0 241:1.0 242:1.0 243:1.0 244:1.0 245:1.0 246:1.0 247:1.0 248:1.0 249:1.0 250:1.0 251:1.0 252:1.0 253:1.0 254:1.0 255:1.0 256:1.0 257:1.0 258:1.0 259:1.0 260:1.0 261:1.0 262:1.0 263:1.0 264:1.0 265:1.0 266:1.0 267:1.0 268:1.0 269:1.0 270:1.0 271:1.0 272:1.0 273:1.0 274:1.0 275:1.0 276:1.0 278:1.0 279:1.0 280:1.0 281:1.0 282:1.0 283:1.0 284:1.0 285:1.0 286:1.0 287:1.0 288:1.0 289:1.0 290:1.0 291:1.0 292:1.0 293:1.0 294:1.0 295:1.0 296:1.0 297:1.0 298:1.0 299:1.0 300:1.0 301:1.0 302:1.0 303:1.0 304:1.0 305:1.0 306:1.0 307:1.0 308:1.0 309:1.0 310:1.0 311:1.0 312:1.0 313:1.0 314:1.0 315:1.0 316:1.0 317:1.0 318:1.0 319:1.0 320:1.0 321:1.0 322:1.0 323:1.0 324:1.0 325:1.0 326:1.0 327:1.0 328:1.0 329:1.0 330:1.0 331:1.0 332:1.0 333:1.0 334:1.0 335:1.0 336:1.0 338:1.0 339:1.0 340:1.0 341:1.0 342:1.0 344:1.0 345:1.0 346:1.0 347:1.0 348:1.0 349:1.0 350:1.0 351:1.0 352:1.0 353:1.0 354:1.0 355:1.0 356:1.0 357:1.0 358:1.0 359:1.0 360:1.0 361:1.0 362:1.0 363:1.0 364:1.0 365:1.0 366:1.0 367:1.0 368:1.0 369:1.0 370:1.0 371:1.0 372:1.0 373:1.0 374:1.0 375:1.0 376:1.0 377:1.0 378:1.0 379:1.0 380:1.0 381:1.0 382:1.0 383:1.0 384:1.0 385:1.0 386:1.0 387:1.0 388:1.0 390:1.0 391:1.0 392:1.0 393:1.0 394:1.0 395:1.0 396:1.0 397:1.0 398:1.0 399:1.0 400:1.0 401:1.0 402:1.0 403:1.0 404:1.0 405:1.0 406:1.0 407:1.0 408:1.0 409:1.0 410:1.0 411:1.0 412:1.0 413:1.0 414:1.0 415:1.0 416:1.0 417:1.0 418:1.0 419:1.0 420:1.0 421:1.0 422:1.0 423:1.0 424:1.0 425:1.0 426:1.0 427:1.0 428:1.0 429:1.0 430:1.0 431:1.0 432:1.0 433:1.0 434:1.0 435:1.0 436:1.0 437:1.0 438:1.0 439:1.0 440:1.0 441:1.0 442:1.0 443:1.0 444:1.0 445:1.0 446:1.0 447:1.0 448:1.0 449:1.0 450:1.0 451:1.0 452:1.0 453:1.0 454:1.0 455:1.0 456:1.0 457:1.0 458:1.0 459:1.0 460:1.0 461:1.0 462:1.0 463:1.0 464:1.0 465:1.0 466:1.0 467:1.0 468:1.0 469:1.0 470:1.0 471:1.0 472:1.0 473:1.0 474:1.0 475:1.0 476:1.0 477:1.0 478:1.0 479:1.0 480:1.0 481:1.0 482:1.0 483:1.0 485:1.0 486:1.0 487:1.0 488:1.0 489:1.0 490:1.0 491:1.0 492:1.0 493:1.0 494:1.0 495:1.0 496:1.0 498:1.0 499:1.0 500:1.0 501:1.0 502:1.0 503:1.0 504:1.0 505:1.0 506:1.0 507:1.0 508:1.0 509:1.0 510:1.0 511:1.0 512:1.0 513:1.0 514:1.0 515:1.0 516:1.0 517:1.0 518:1.0 519:1.0 520:1.0 521:1.0 522:1.0 523:1.0 525:1.0 526:1.0 527:1.0 528:1.0 529:1.0 530:1.0 531:1.0 532:1.0 533:1.0 534:1.0 535:1.0 536:1.0 537:1.0 538:1.0 539:1.0 540:1.0 541:1.0 542:1.0 543:1.0 544:1.0 545:1.0 546:1.0 
-0.011463062164233692 -0.012861297143141983 -0.017635883166579658 -0.014482441012604073 -0.017531010167750497 -0.02399244964170211 0.01681646913679085 0.010886429372096747 0.011651084715702581 0.01347156819940289 0.00821533772062988 0.008488824481222672 0.008980981467133001 0.007272872549389525 0.007686212621545508 0.007391360445213976 0.007759383341195013 0.008162563754460476 0.010461128644937775 0.0089098075043267 0.013573712199854353 0.015076137531107646 0.009418714578858308 0.0133219552473697 0.011509012489638797 0.01572995628274174 0.010553256942885586 0.010543077228491148 0.010696101837543813 0.006396124847797291 0.007104640153055041 0.006975898576974596 0.008124556029262087 0.010205740604508242 0.016481786438942245 0.010344283306079413 0.006183296005482845 0.009949859002165905 0.016377105238694508 0.018764738692080306 0.018723982960535526 0.010036897113840737 1:1.0 2:1.0 3:1.0 4:1.0 5:1.0 6:1.0 7:1.0 8:1.0 9:1.0 10:1.0 11:1.0 12:1.0 13:1.0 14:1.0 15:1.0 16:1.0 17:1.0 18:1.0 19:1.0 20:1.0 21:1.0 22:1.0 23:1.0 24:1.0 25:1.0 26:1.0 27:1.0 28:1.0 29:1.0 30:1.0 31:1.0 32:1.0 33:1.0 34:-0.5217391304347826 35:1.0 36:1.0 37:1.0 38:-0.06521739130434778 39:1.0 40:1.0 41:1.0 42:-0.48888888888888893 43:1.0 44:-0.5333333333333333 45:1.0 46:-1.0 47:1.0 48:1.0 49:1.0 50:-0.9142857142857143 51:-0.5862068965517242 52:1.0 53:1.0 54:1.0 55:1.0 56:1.0 57:1.0 58:1.0 59:1.0 60:1.0 61:-0.3111111111111111 62:-0.4626865671641791 63:-0.34090909090909094 64:-0.5555555555555556 65:-0.6444444444444444 66:1.0 67:1.0 68:-0.92 69:-0.6404494382022472 70:-0.9230769230769231 71:-1.0 72:1.0 73:-0.9230769230769231 74:-0.5802469135802469 75:1.0 76:-0.9024390243902439 77:1.0 78:-0.7471264367816092 79:1.0 80:1.0 81:1.0 82:1.0 83:1.0 84:1.0 85:1.0 86:1.0 87:-1.0 88:-0.9080459770114943 89:-1.0 90:-1.0 91:-1.0 92:-1.0 93:-1.0 94:-1.0 95:-0.9240506329113924 96:-1.0 97:1.0 98:1.0 99:1.0 100:1.0 101:1.0 102:1.0 103:1.0 104:1.0 105:1.0 106:1.0 107:1.0 108:1.0 109:1.0 110:1.0 111:1.0 112:1.0 113:1.0 114:1.0 115:1.0 116:1.0 117:1.0 118:1.0 119:1.0 120:1.0 121:1.0 122:1.0 123:1.0 124:1.0 125:1.0 126:1.0 127:1.0 128:1.0 129:1.0 130:1.0 131:1.0 132:1.0 133:1.0 134:1.0 135:1.0 136:1.0 137:1.0 138:1.0 139:1.0 140:1.0 141:1.0 142:1.0 143:1.0 144:1.0 145:1.0 146:1.0 147:1.0 148:1.0 149:1.0 150:1.0 151:1.0 152:1.0 153:1.0 154:1.0 155:1.0 156:1.0 157:1.0 158:1.0 159:1.0 160:1.0 161:1.0 162:1.0 163:1.0 164:1.0 165:1.0 166:1.0 167:1.0 168:1.0 169:1.0 170:1.0 171:1.0 172:1.0 173:1.0 174:1.0 175:1.0 176:1.0 177:1.0 178:1.0 179:1.0 180:1.0 181:1.0 182:1.0 183:1.0 184:1.0 185:1.0 186:1.0 187:1.0 188:1.0 189:1.0 190:1.0 191:1.0 192:1.0 193:1.0 194:1.0 195:1.0 196:1.0 197:1.0 198:1.0 199:1.0 200:1.0 201:1.0 202:1.0 203:1.0 204:1.0 205:1.0 206:1.0 207:1.0 208:1.0 209:1.0 210:1.0 211:1.0 212:1.0 213:1.0 214:1.0 215:1.0 216:1.0 217:1.0 218:1.0 219:1.0 220:1.0 221:1.0 222:1.0 223:1.0 224:1.0 225:1.0 226:1.0 227:1.0 228:1.0 230:1.0 231:1.0 232:1.0 233:1.0 234:1.0 235:1.0 236:1.0 237:1.0 238:1.0 239:1.0 240:1.0 241:1.0 242:1.0 243:1.0 244:1.0 245:1.0 246:1.0 247:1.0 248:1.0 249:1.0 250:1.0 251:1.0 252:1.0 253:1.0 254:1.0 255:1.0 256:1.0 257:1.0 258:1.0 259:1.0 260:1.0 261:1.0 262:1.0 263:1.0 264:1.0 265:1.0 266:1.0 267:1.0 268:1.0 269:1.0 270:1.0 271:1.0 272:1.0 273:1.0 274:1.0 275:1.0 276:1.0 278:1.0 279:1.0 280:1.0 281:1.0 282:1.0 283:1.0 284:1.0 285:1.0 286:1.0 287:1.0 288:1.0 289:1.0 290:1.0 291:1.0 292:1.0 293:1.0 294:1.0 295:1.0 296:1.0 297:1.0 298:1.0 299:1.0 300:1.0 301:1.0 302:1.0 303:1.0 304:1.0 305:1.0 306:1.0 307:1.0 308:1.0 309:1.0 310:1.0 311:1.0 312:1.0 313:1.0 314:1.0 315:1.0 316:1.0 317:1.0 318:1.0 319:1.0 320:1.0 321:1.0 322:1.0 323:1.0 324:1.0 325:1.0 326:1.0 327:1.0 328:1.0 329:1.0 330:1.0 331:1.0 332:1.0 333:1.0 334:1.0 335:1.0 336:1.0 338:1.0 339:1.0 340:1.0 341:1.0 342:1.0 344:1.0 345:1.0 346:1.0 347:1.0 348:1.0 349:1.0 350:1.0 351:1.0 352:1.0 353:1.0 354:1.0 355:1.0 356:1.0 357:1.0 358:1.0 359:1.0 360:1.0 361:1.0 362:1.0 363:1.0 364:1.0 365:1.0 366:1.0 367:1.0 368:1.0 369:1.0 370:1.0 371:1.0 372:1.0 373:1.0 374:1.0 375:1.0 376:1.0 377:1.0 378:1.0 379:1.0 380:1.0 381:1.0 382:1.0 383:1.0 384:1.0 385:1.0 386:1.0 387:1.0 388:1.0 390:1.0 391:1.0 392:1.0 393:1.0 394:1.0 395:1.0 396:1.0 397:1.0 398:1.0 399:1.0 400:1.0 401:1.0 402:1.0 403:1.0 404:1.0 405:1.0 406:1.0 407:1.0 408:1.0 409:1.0 410:1.0 411:1.0 412:1.0 413:1.0 414:1.0 415:1.0 416:1.0 417:1.0 418:1.0 419:1.0 420:1.0 421:1.0 422:1.0 423:1.0 424:1.0 425:1.0 426:1.0 427:1.0 428:1.0 429:1.0 430:1.0 431:1.0 432:1.0 433:1.0 434:1.0 435:1.0 436:1.0 437:1.0 438:1.0 439:1.0 440:1.0 441:1.0 442:1.0 443:1.0 444:1.0 445:1.0 446:1.0 447:1.0 448:1.0 449:1.0 450:1.0 451:1.0 452:1.0 453:1.0 454:1.0 455:1.0 456:1.0 457:1.0 458:1.0 459:1.0 460:1.0 461:1.0 462:1.0 463:1.0 464:1.0 465:1.0 466:1.0 467:1.0 468:1.0 469:1.0 470:1.0 471:1.0 472:1.0 473:1.0 474:1.0 475:1.0 476:1.0 477:1.0 478:1.0 479:1.0 480:1.0 481:1.0 482:1.0 483:1.0 485:1.0 486:1.0 487:1.0 488:1.0 489:1.0 490:1.0 491:1.0 492:1.0 493:1.0 494:1.0 495:1.0 496:1.0 498:1.0 499:1.0 500:1.0 501:1.0 502:1.0 503:1.0 504:1.0 505:1.0 506:1.0 507:1.0 508:1.0 509:1.0 510:1.0 511:1.0 512:1.0 513:1.0 514:1.0 515:1.0 516:1.0 517:1.0 518:1.0 519:1.0 520:1.0 521:1.0 522:1.0 523:1.0 525:1.0 526:1.0 527:1.0 528:1.0 529:1.0 530:1.0 531:1.0 532:1.0 533:1.0 534:1.0 535:1.0 536:1.0 537:1.0 538:1.0 539:1.0 540:1.0 541:1.0 542:1.0 543:1.0 544:1.0 545:1.0 546:1.0 
-0.00974909063429188 -0.010402239173408006 -0.013482543217130334 -0.011134224352174212 -0.014525910850591201 -0.013040313623363047 -0.01681646913679085 0.011248092736350515 0.009813505069672053 0.011868374339131698 0.008469892952836075 0.00810735315257228 0.008741951817887386 0.007235203965937486 0.007164155087516468 0.006638784904625208 0.006934182612697926 0.007254393249305344 0.009014781347259733 0.007838656864518116 0.01088022652971642 0.01181408676979476 0.008229873879593891 0.011061824417843133 0.00978231308357507 0.01267268407742682 0.009083109845256163 0.008821587907360404 0.009188736730971186 0.005824735680043401 0.006546357110492951 0.006626429764252951 0.007649169067925592 0.00882449335510372 0.014461840609932365 0.008927878122257548 0.005885433766957801 0.008226359446819504 0.012509033050370924 0.014571229736550138 0.014546642659023997 0.008697974206556713 1:1.0 2:1.0 3:1.0 4:1.0 5:1.0 6:1.0 7:1.0 8:1.0 9:1.0 10:1.0 11:1.0 12:1.0 13:1.0 14:1.0 15:1.0 16:1.0 17:1.0 18:1.0 19:1.0 20:1.0 21:1.0 22:1.0 23:1.0 24:1.0 25:1.0 26:1.0 27:1.0 28:1.0 29:1.0 30:1.0 31:1.0 32:1.0 33:1.0 34:1.0 35:1.0 36:1.0 37:1.0 38:1.0 39:1.0 40:1.0 41:1.0 42:1.0 43:1.0 44:1.0 45:1.0 46:1.0 47:1.0 48:1.0 49:1.0 50:1.0 51:1.0 52:-1.0 53:-1.0 54:1.0 55:1.0 56:1.0 57:-0.6853932584269663 58:1.0 59:1.0 60:1.0 61:-1.0 62:-0.3731343283582089 63:-0.2954545454545454 64:-0.7037037037037037 65:0.022222222222222143 66:1.0 67:1.0 68:-1.0 69:0.011235955056179803 70:-0.9743589743589743 71:-0.8974358974358975 72:1.0 73:-0.9743589743589743 74:-0.7037037037037037 75:1.0 76:-0.8048780487804879 77:1.0 78:-0.632183908045977 79:-0.7752808988764045 80:1.0 81:1.0 82:1.0 83:1.0 84:1.0 85:1.0 86:1.0 87:1.0 88:1.0 89:1.0 90:-0.8701298701298701 91:-0.7752808988764045 92:1.0 93:-0.6956521739130435 94:1.0 95:1.0 96:-1.0 97:-1.0 98:-1.0 99:-1.0 100:-1.0 101:-1.0 102:-1.0 103:-1.0 104:-0.6363636363636364 105:-1.0 106:-0.7674418604651163 107:-1.0 108:-1.0 109:-1.0 110:-1.0 111:-1.0 112:-1.0 113:1.0 114:1.0 115:1.0 116:1.0 117:1.0 118:1.0 119:1.0 120:1.0 121:1.0 122:1.0 123:1.0 124:1.0 125:1.0 126:1.0 127:1.0 128:1.0 129:1.0 130:1.0 131:1.0 132:1.0 133:1.0 134:1.0 135:1.0 136:1.0 137:1.0 138:1.0 139:1.0 140:1.0 141:1.0 142:1.0 143:1.0 144:1.0 145:1.0 146:1.0 147:1.0 148:1.0 149:1.0 150:1.0 151:1.0 152:1.0 153:1.0 154:1.0 155:1.0 156:1.0 157:1.0 158:1.0 159:1.0 160:1.0 161:1.0 162:1.0 163:1.0 164:1.0 165:1.0 166:1.0 167:1.0 168:1.0 169:1.0 170:1.0 171:1.0 172:1.0 173:1.0 174:1.0 175:1.0 176:1.0 177:1.0 178:1.0 179:1.0 180:1.0 181:1.0 182:1.0 183:1.0 184:1.0 185:1.0 186:1.0 187:1.0 188:1.0 189:1.0 190:1.0 191:1.0 192:1.0 193:1.0 194:1.0 195:1.0 196:1.0 197:1.0 198:1.0 199:1.0 200:1.0 201:1.0 202:1.0 203:1.0 204:1.0 205:1.0 206:1.0 207:1.0 208:1.0 209:1.0 210:1.0 211:1.0 212:1.0 213:1.0 214:1.0 215:1.0 216:1.0 217:1.0 218:1.0 219:1.0 220:1.0 221:1.0 222:1.0 223:1.0 224:1.0 225:1.0 226:1.0 227:1.0 228:1.0 230:1.0 231:1.0 232:1.0 233:1.0 234:1.0 235:1.0 236:1.0 237:1.0 238:1.0 239:1.0 240:1.0 241:1.0 242:1.0 243:1.0 244:1.0 245:1.0 246:1.0 247:1.0 248:1.0 249:1.0 250:1.0 251:1.0 252:1.0 253:1.0 254:1.0 255:1.0 256:1.0 257:1.0 258:1.0 259:1.0 260:1.0 261:1.0 262:1.0 263:1.0 264:1.0 265:1.0 266:1.0 267:1.0 268:1.0 269:1.0 270:1.0 271:1.0 272:1.0 273:1.0 274:1.0 275:1.0 276:1.0 278:1.0 279:1.0 280:1.0 281:1.0 282:1.0 283:1.0 284:1.0 285:1.0 286:1.0 287:1.0 288:1.0 289:1.0 290:1.0 291:1.0 292:1.0 293:1.0 294:1.0 295:1.0 296:1.0 297:1.0 298:1.0 299:1.0 300:1.0 301:1.0 302:1.0 303:1.0 304:1.0 305:1.0 306:1.0 307:1.0 308:1.0 309:1.0 310:1.0 311:1.0 312:1.0 313:1.0 314:1.0 315:1.0 316:1.0 317:1.0 318:1.0 319:1.0 320:1.0 321:1.0 322:1.0 323:1.0 324:1.0 325:1.0 326:1.0 327:1.0 328:1.0 329:1.0 330:1.0 331:1.0 332:1.0 333:1.0 334:1.0 335:1.0 336:1.0 338:1.0 339:1.0 340:1.0 341:1.0 342:1.0 344:1.0 345:1.0 346:1.0 347:1.0 348:1.0 349:1.0 350:1.0 351:1.0 352:1.0 353:1.0 354:1.0 355:1.0 356:1.0 357:1.0 358:1.0 359:1.0 360:1.0 361:1.0 362:1.0 363:1.0 364:1.0 365:1.0 366:1.0 367:1.0 368:1.0 369:1.0 370:1.0 371:1.0 372:1.0 373:1.0 374:1.0 375:1.0 376:1.0 377:1.0 378:1.0 379:1.0 380:1.0 381:1.0 382:1.0 383:1.0 384:1.0 385:1.0 386:1.0 387:1.0 388:1.0 390:1.0 391:1.0 392:1.0 393:1.0 394:1.0 395:1.0 396:1.0 397:1.0 398:1.0 399:1.0 400:1.0 401:1.0 402:1.0 403:1.0 404:1.0 405:1.0 406:1.0 407:1.0 408:1.0 409:1.0 410:1.0 411:1.0 412:1.0 413:1.0 414:1.0 415:1.0 416:1.0 417:1.0 418:1.0 419:1.0 420:1.0 421:1.0 422:1.0 423:1.0 424:1.0 425:1.0 426:1.0 427:1.0 428:1.0 429:1.0 430:1.0 431:1.0 432:1.0 433:1.0 434:1.0 435:1.0 436:1.0 437:1.0 438:1.0 439:1.0 440:1.0 441:1.0 442:1.0 443:1.0 444:1.0 445:1.0 446:1.0 447:1.0 448:1.0 449:1.0 450:1.0 451:1.0 452:1.0 453:1.0 454:1.0 455:1.0 456:1.0 457:1.0 458:1.0 459:1.0 460:1.0 461:1.0 462:1.0 463:1.0 464:1.0 465:1.0 466:1.0 467:1.0 468:1.0 469:1.0 470:1.0 471:1.0 472:1.0 473:1.0 474:1.0 475:1.0 476:1.0 477:1.0 478:1.0 479:1.0 480:1.0 481:1.0 482:1.0 483:1.0 485:1.0 486:1.0 487:1.0 488:1.0 489:1.0 490:1.0 491:1.0 492:1.0 493:1.0 494:1.0 495:1.0 496:1.0 498:1.0 499:1.0 500:1.0 501:1.0 502:1.0 503:1.0 504:1.0 505:1.0 506:1.0 507:1.0 508:1.0 509:1.0 510:1.0 511:1.0 512:1.0 513:1.0 514:1.0 515:1.0 516:1.0 517:1.0 518:1.0 519:1.0 520:1.0 521:1.0 522:1.0 523:1.0 525:1.0 526:1.0 527:1.0 528:1.0 529:1.0 530:1.0 531:1.0 532:1.0 533:1.0 534:1.0 535:1.0 536:1.0 537:1.0 538:1.0 539:1.0 540:1.0 541:1.0 542:1.0 543:1.0 544:1.0 545:1.0 546:1.0 
-0.009163170029543729 -0.009737861105910533 -0.012387145161479336 -0.009310304951696826 -0.01039039776058517 -0.010065644169894607 -0.010886429372096747 -0.011248092736350515 0.011295228482948231 0.010572331323596645 0.008991042980741475 0.00884410696057776 0.009597090881826446 0.007926985036267506 0.007733941827389219 0.006741156500860851 0.006938013104477145 0.007113372632575244 0.008811520374489616 0.007455360098579664 0.010155506188511583 0.010964481544450018 0.007808385722054067 0.010313545246556617 0.009192505392545621 0.011700174459998814 0.008572409232082912 0.008339086899505197 0.008666426167698308 0.005610397864323157 0.006259752207953369 0.006430916126864579 0.0075358237949247715 0.00834168103914618 0.01163329419829924 0.009017497820477822 0.0056911564590405375 0.007619880334765006 0.011228478008041685 0.013300126312234753 0.013279633383558835 0.00822854089297046 1:1.0 2:1.0 3:1.0 4:1.0 5:1.0 6:1.0 7:1.0 8:1.0 9:1.0 10:1.0 11:1.0 12:1.0 13:1.0 14:1.0 15:1.0 16:1.0 17:1.0 18:1.0 19:1.0 20:1.0 21:1.0 22:1.0 23:1.0 24:1.0 25:1.0 26:1.0 27:1.0 28:1.0 29:1.0 30:1.0 31:1.0 32:1.0 33:1.0 34:1.0 35:1.0 36:1.0 37:1.0 38:1.0 39:1.0 40:1.0 41:1.0 42:1.0 43:1.0 44:1.0 45:1.0 46:1.0 47:1.0 48:1.0 49:1.0 50:1.0 51:1.0 52:1.0 53:1.0 54:1.0 55:1.0 56:1.0 57:1.0 58:1.0 59:1.0 60:1.0 61:-0.9333333333333333 62:1.0 63:1.0 64:-0.7037037037037037 65:-0.6888888888888889 66:1.0 67:1.0 68:1.0 69:-0.7078651685393258 70:1.0 71:1.0 72:1.0 73:1.0 74:1.0 75:1.0 76:-1.0 77:1.0 78:1.0 79:-0.7752808988764045 80:1.0 81:1.0 82:1.0 83:1.0 84:1.0 85:1.0 86:1.0 87:1.0 88:-1.0 89:1.0 90:1.0 91:-0.8876404494382022 92:1.0 93:1.0 94:1.0 95:1.0 96:-0.5714285714285714 97:1.0 98:1.0 99:1.0 100:1.0 101:-0.2359550561797753 102:1.0 103:1.0 104:-1.0 105:1.0 106:-0.5581395348837209 107:1.0 108:-0.8651685393258427 109:1.0 110:-1.0 111:1.0 112:-1.0 113:-0.7073170731707317 114:-0.9259259259259259 115:-1.0 116:-1.0 117:-1.0 118:-1.0 119:-0.5604395604395604 120:-1.0 121:-1.0 122:-1.0 123:-1.0 124:-0.30952380952380953 125:-0.4505494505494505 126:-0.6956521739130435 127:-0.7555555555555555 128:-1.0 129:-0.8444444444444444 130:-1.0 131:-1.0 132:-1.0 133:-0.5714285714285714 134:-0.9459459459459459 135:-0.5632183908045977 136:-0.7582417582417582 137:-1.0 138:-1.0 139:1.0 140:1.0 141:1.0 142:1.0 143:1.0 144:1.0 145:1.0 146:1.0 147:1.0 148:1.0 149:1.0 150:1.0 151:1.0 152:1.0 153:1.0 154:1.0 155:1.0 156:1.0 157:1.0 158:1.0 159:1.0 160:1.0 161:1.0 162:1.0 163:1.0 164:1.0 165:1.0 166:1.0 167:1.0 168:1.0 169:1.0 170:1.0 171:1.0 172:1.0 173:1.0 174:1.0 175:1.0 176:1.0 177:1.0 178:1.0 179:1.0 180:1.0 181:1.0 182:1.0 183:1.0 184:1.0 185:1.0 186:1.0 187:1.0 188:1.0 189:1.0 190:1.0 191:1.0 192:1.0 193:1.0 194:1.0 195:1.0 196:1.0 197:1.0 198:1.0 199:1.0 200:1.0 201:1.0 202:1.0 203:1.0 204:1.0 205:1.0 206:1.0 207:1.0 208:1.0 209:1.0 210:1.0 211:1.0 212:1.0 213:1.0 214:1.0 215:1.0 216:1.0 217:1.0 218:1.0 219:1.0 220:1.0 221:1.0 222:1.0 223:1.0 224:1.0 225:1.0 226:1.0 227:1.0 228:1.0 230:1.0 231:1.0 232:1.0 233:1.0 234:1.0 235:1.0 236:1.0 237:1.0 238:1.0 239:1.0 240:1.0 241:1.0 242:1.0 243:1.0 244:1.0 245:1.0 246:1.0 247:1.0 248:1.0 249:1.0 250:1.0 251:1.0 252:1.0 253:1.0 254:1.0 255:1.0 256:1.0 257:1.0 258:1.0 259:1.0 260:1.0 261:1.0 262:1.0 263:1.0 264:1.0 265:1.0 266:1.0 267:1.0 268:1.0 269:1.0 270:1.0 271:1.0 272:1.0 273:1.0 274:1.0 275:1.0 276:1.0 278:1.0 279:1.0 280:1.0 281:1.0 282:1.0 283:1.0 284:1.0 285:1.0 286:1.0 287:1.0 288:1.0 289:1.0 290:1.0 291:1.0 292:1.0 293:1.0 294:1.0 295:1.0 296:1.0 297:1.0 298:1.0 299:1.0 300:1.0 301:1.0 302:1.0 303:1.0 304:1.0 305:1.0 306:1.0 307:1.0 308:1.0 309:1.0 310:1.0 311:1.0 312:1.0 313:1.0 314:1.0 315:1.0 316:1.0 317:1.0 318:1.0 319:1.0 320:1.0 321:1.0 322:1.0 323:1.0 324:1.0 325:1.0 326:1.0 327:1.0 328:1.0 329:1.0 330:1.0 331:1.0 332:1.0 333:1.0 334:1.0 335:1.0 336:1.0 338:1.0 339:1.0 340:1.0 341:1.0 342:1.0 344:1.0 345:1.0 346:1.0 347:1.0 348:1.0 349:1.0 350:1.0 351:1.0 352:1.0 353:1.0 354:1.0 355:1.0 356:1.0 357:1.0 358:1.0 359:1.0 360:1.0 361:1.0 362:1.0 363:1.0 364:1.0 365:1.0 366:1.0 367:1.0 368:1.0 369:1.0 370:1.0 371:1.0 372:1.0 373:1.0 374:1.0 375:1.0 376:1.0 377:1.0 378:1.0 379:1.0 380:1.0 381:1.0 382:1.0 383:1.0 384:1.0 385:1.0 386:1.0 387:1.0 388:1.0 390:1.0 391:1.0 392:1.0 393:1.0 394:1.0 395:1.0 396:1.0 397:1.0 398:1.0 399:1.0 400:1.0 401:1.0 402:1.0 403:1.0 404:1.0 405:1.0 406:1.0 407:1.0 408:1.0 409:1.0 410:1.0 411:1.0 412:1.0 413:1.0 414:1.0 415:1.0 416:1.0 417:1.0 418:1.0 419:1.0 420:1.0 421:1.0 422:1.0 423:1.0 424:1.0 425:1.0 426:1.0 427:1.0 428:1.0 429:1.0 430:1.0 431:1.0 432:1.0 433:1.0 434:1.0 435:1.0 436:1.0 437:1.0 438:1.0 439:1.0 440:1.0 441:1.0 442:1.0 443:1.0 444:1.0 445:1.0 446:1.0 447:1.0 448:1.0 449:1.0 450:1.0 451:1.0 452:1.0 453:1.0 454:1.0 455:1.0 456:1.0 457:1.0 458:1.0 459:1.0 460:1.0 461:1.0 462:1.0 463:1.0 464:1.0 465:1.0 466:1.0 467:1.0 468:1.0 469:1.0 470:1.0 471:1.0 472:1.0 473:1.0 474:1.0 475:1.0 476:1.0 477:1.0 478:1.0 479:1.0 480:1.0 481:1.0 482:1.0 483:1.0 485:1.0 486:1.0 487:1.0 488:1.0 489:1.0 490:1.0 491:1.0 492:1.0 493:1.0 494:1.0 495:1.0 496:1.0 498:1.0 499:1.0 500:1.0 501:1.0 502:1.0 503:1.0 504:1.0 505:1.0 506:1.0 507:1.0 508:1.0 509:1.0 510:1.0 511:1.0 512:1.0 513:1.0 514:1.0 515:1.0 516:1.0 517:1.0 518:1.0 519:1.0 520:1.0 521:1.0 522:1.0 523:1.0 525:1.0 526:1.0 527:1.0 528:1.0 529:1.0 530:1.0 531:1.0 532:1.0 533:1.0 534:1.0 535:1.0 536:1.0 537:1.0 538:1.0 539:1.0 540:1.0 541:1.0 542:1.0 543:1.0 544:1.0 545:1.0 546:1.0 
-0.009468142249822226 -0.010083004469471434 -0.013522145980413356 -0.009627914370091176 -0.011991430928142902 -0.011169078885028157 -0.011651084715702581 -0.009813505069672053 -0.011295228482948231 0.020909467391810672 0.009095486509157385 0.008622685916139327 0.009052916518284996 0.007081713088180597 0.007608867786169638 0.006976929376049425 0.006967855747013761 0.0070976782006103465 0.008774039040832163 0.007655997848619745 0.010531468257271479 0.011404018900435133 0.008028761233784992 0.010701519760809538 0.009499474409573225 0.012202038166372674 0.008838756089659642 0.008590921591847853 0.008938742552866464 0.005723270242522878 0.006412489324911723 0.006453135012865702 0.007853415689383605 0.00955371207838429 0.014091866342294564 0.008691694190718604 0.005840096698085465 0.007829602914309718 0.011689885544861469 0.013952438738796279 0.013929893965653936 0.008473647081701598 1:1.0 2:1.0 3:1.0 4:1.0 5:1.0 6:1.0 7:1.0 8:1.0 9:1.0 10:1.0 11:1.0 12:1.0 13:1.0 14:1.0 15:1.0 16:1.0 17:1.0 18:1.0 19:1.0 20:1.0 21:1.0 22:1.0 23:1.0 24:1.0 25:1.0 26:1.0 27:1.0 28:1.0 29:1.0 30:1.0 31:1.0 32:1.0 33:1.0 34:1.0 35:1.0 36:1.0 37:1.0 38:-0.6304347826086957 39:1.0 40:1.0 41:1.0 42:1.0 43:1.0 44:1.0 45:1.0 46:1.0 47:1.0 48:1.0 49:1.0 50:1.0 51:1.0 52:1.0 53:1.0 54:1.0 55:1.0 56:1.0 57:-0.6404494382022472 58:1.0 59:1.0 60:1.0 61:1.0 62:1.0 63:1.0 64:-0.6049382716049383 65:-0.33333333333333337 66:-0.8701298701298701 67:-0.388235294117647 68:1.0 69:-0.348314606741573 70:1.0 71:1.0 72:1.0 73:1.0 74:-0.6296296296296297 75:1.0 76:1.0 77:1.0 78:-0.8850574712643678 79:-0.4157303370786517 80:1.0 81:1.0 82:1.0 83:1.0 84:1.0 85:1.0 86:1.0 87:1.0 88:1.0 89:1.0 90:1.0 91:-0.4157303370786517 92:1.0 93:1.0 94:-0.9104477611940298 95:-1.0 96:-0.40476190476190477 97:1.0 98:1.0 99:1.0 100:1.0 101:-0.4157303370786517 102:1.0 103:1.0 104:1.0 105:1.0 106:-0.37209302325581395 107:1.0 108:1.0 109:1.0 110:1.0 111:1.0 112:1.0 113:1.0 114:1.0 115:1.0 116:1.0 117:1.0 118:1.0 119:-1.0 120:1.0 121:1.0 122:1.0 123:1.0 124:-0.47619047619047616 125:1.0 126:-1.0 127:1.0 128:1.0 129:-0.6 130:1.0 131:1.0 132:1.0 133:-0.9285714285714286 134:-1.0 135:1.0 136:-0.9340659340659341 137:-0.6483516483516483 138:-0.7111111111111111 139:-1.0 140:-1.0 141:-1.0 142:-0.9782608695652174 143:-0.9782608695652174 144:-1.0 145:-1.0 146:-1.0 147:-1.0 148:-1.0 149:-1.0 150:-0.29670329670329665 151:-1.0 152:-1.0 153:-1.0 154:-1.0 155:1.0 156:1.0 157:1.0 158:1.0 159:1.0 160:1.0 161:1.0 162:1.0 163:1.0 164:1.0 165:1.0 166:1.0 167:1.0 168:1.0 169:1.0 170:1.0 171:1.0 172:1.0 173:1.0 174:1.0 175:1.0 176:1.0 177:1.0 178:1.0 179:1.0 180:1.0 181:1.0 182:1.0 183:1.0 184:1.0 185:1.0 186:1.0 187:1.0 188:1.0 189:1.0 190:1.0 191:1.0 192:1.0 193:1.0 194:1.0 195:1.0 196:1.0 197:1.0 198:1.0 199:1.0 200:1.0 201:1.0 202:1.0 203:1.0 204:1.0 205:1.0 206:1.0 207:1.0 208:1.0 209:1.0 210:1.0 211:1.0 212:1.0 213:1.0 214:1.0 215:1.0 216:1.0 217:1.0 218:1.0 219:1.0 220:1.0 221:1.0 222:1.0 223:1.0 224:1.0 225:1.0 226:1.0 227:1.0 228:1.0 230:1.0 231:1.0 232:1.0 233:1.0 234:1.0 235:1.0 236:1.0 237:1.0 238:1.0 239:1.0 240:1.0 241:1.0 242:1.0 243:1.0 244:1.0 245:1.0 246:1.0 247:1.0 248:1.0 249:1.0 250:1.0 251:1.0 252:1.0 253:1.0 254:1.0 255:1.0 256:1.0 257:1.0 258:1.0 259:1.0 260:1.0 261:1.0 262:1.0 263:1.0 264:1.0 265:1.0 266:1.0 267:1.0 268:1.0 269:1.0 270:1.0 271:1.0 272:1.0 273:1.0 274:1.0 275:1.0 276:1.0 278:1.0 279:1.0 280:1.0 281:1.0 282:1.0 283:1.0 284:1.0 285:1.0 286:1.0 287:1.0 288:1.0 289:1.0 290:1.0 291:1.0 292:1.0 293:1.0 294:1.0 295:1.0 296:1.0 297:1.0 298:1.0 299:1.0 300:1.0 301:1.0 302:1.0 303:1.0 304:1.0 305:1.0 306:1.0 307:1.0 308:1.0 309:1.0 310:1.0 311:1.0 312:1.0 313:1.0 314:1.0 315:1.0 316:1.0 317:1.0 318:1.0 319:1.0 320:1.0 321:1.0 322:1.0 323:1.0 324:1.0 325:1.0 326:1.0 327:1.0 328:1.0 329:1.0 330:1.0 331:1.0 332:1.0 333:1.0 334:1.0 335:1.0 336:1.0 338:1.0 339:1.0 340:1.0 341:1.0 342:1.0 344:1.0 345:1.0 346:1.0 347:1.0 348:1.0 349:1.0 350:1.0 351:1.0 352:1.0 353:1.0 354:1.0 355:1.0 356:1.0 357:1.0 358:1.0 359:1.0 360:1.0 361:1.0 362:1.0 363:1.0 364:1.0 365:1.0 366:1.0 367:1.0 368:1.0 369:1.0 370:1.0 371:1.0 372:1.0 373:1.0 374:1.0 375:1.0 376:1.0 377:1.0 378:1.0 379:1.0 380:1.0 381:1.0 382:1.0 383:1.0 384:1.0 385:1.0 386:1.0 387:1.0 388:1.0 390:1.0 391:1.0 392:1.0 393:1.0 394:1.0 395:1.0 396:1.0 397:1.0 398:1.0 399:1.0 400:1.0 401:1.0 402:1.0 403:1.0 404:1.0 405:1.0 406:1.0 407:1.0 408:1.0 409:1.0 410:1.0 411:1.0 412:1.0 413:1.0 414:1.0 415:1.0 416:1.0 417:1.0 418:1.0 419:1.0 420:1.0 421:1.0 422:1.0 423:1.0 424:1.0 425:1.0 426:1.0 427:1.0 428:1.0 429:1.0 430:1.0 431:1.0 432:1.0 433:1.0 434:1.0 435:1.0 436:1.0 437:1.0 438:1.0 439:1.0 440:1.0 441:1.0 442:1.0 443:1.0 444:1.0 445:1.0 446:1.0 447:1.0 448:1.0 449:1.0 450:1.0 451:1.0 452:1.0 453:1.0 454:1.0 455:1.0 456:1.0 457:1.0 458:1.0 459:1.0 460:1.0 461:1.0 462:1.0 463:1.0 464:1.0 465:1.0 466:1.0 467:1.0 468:1.0 469:1.0 470:1.0 471:1.0 472:1.0 473:1.0 474:1.0 475:1.0 476:1.0 477:1.0 478:1.0 479:1.0 480:1.0 481:1.0 482:1.0 483:1.0 485:1.0 486:1.0 487:1.0 488:1.0 489:1.0 490:1.0 491:1.0 492:1.0 493:1.0 494:1.0 495:1.0 496:1.0 498:1.0 499:1.0 500:1.0 501:1.0 502:1.0 503:1.0 504:1.0 505:1.0 506:1.0 507:1.0 508:1.0 509:1.0 510:1.0 511:1.0 512:1.0 513:1.0 514:1.0 515:1.0 516:1.0 517:1.0 518:1.0 519:1.0 520:1.0 521:1.0 522:1.0 523:1.0 525:1.0 526:1.0 527:1.0 528:1.0 529:1.0 530:1.0 531:1.0 532:1.0 533:1.0 534:1.0 535:1.0 536:1.0 537:1.0 538:1.0 539:1.0 540:1.0 541:1.0 542:1.0 543:1.0 544:1.0 545:1.0 546:1.0 
-0.010985477967860906 -0.011821907978308704 -0.01674691399983339 -0.011600203626621277 -0.015648071210949067 -0.014045603633476955 -0.01347156819940289 -0.011868374339131698 -0.010572331323596645 -0.020909467391810672 0.009261926129016301 0.00878020573784087 0.009218031423674992 0.007415359715551436 0.008023357057997942 0.007392762862376346 0.007763937260146157 0.007917460091946724 0.010061929011322126 0.008618576440944551 0.012443158408378474 0.013679838019496108 0.009093868493581035 0.01268124214872131 0.011027672160983552 0.014844391653110196 0.010147131549472065 0.009821838303550795 0.010279128143724597 0.006244646132590104 0.007079699553521755 0.006986008794764246 0.008659424933636533 0.011492458950618692 0.017738388008832384 0.00995378512971087 0.006169408709771193 0.009163182841403224 0.014093236081058473 0.01751805774522367 0.017482523078925845 0.009668849003313044 1:1.0 2:1.0 3:1.0 4:1.0 5:1.0 6:1.0 7:1.0 8:1.0 9:1.0 10:1.0 11:1.0 12:1.0 13:1.0 14:1.0 15:1.0 16:1.0 17:1.0 18:1.0 19:1.0 20:1.0 21:1.0 22:1.0 23:1.0 24:1.0 25:1.0 26:1.0 27:1.0 28:1.0 29:1.0 30:1.0 31:1.0 32:1.0 33:1.0 34:1.0 35:1.0 36:1.0 37:1.0 38:-0.4565217391304348 39:1.0 40:1.0 41:1.0 42:1.0 43:1.0 44:1.0 45:1.0 46:1.0 47:1.0 48:1.0 49:1.0 50:1.0 51:1.0 52:1.0 53:1.0 54:1.0 55:1.0 56:-1.0 57:-0.4382022471910112 58:1.0 59:1.0 60:1.0 61:1.0 62:-1.0 63:-0.6136363636363636 64:1.0 65:-0.33333333333333337 66:1.0 67:1.0 68:-0.6799999999999999 69:-1.0 70:-1.0 71:1.0 72:1.0 73:1.0 74:1.0 75:1.0 76:1.0 77:1.0 78:1.0 79:-0.9775280898876404 80:-1.0 81:1.0 82:1.0 83:1.0 84:1.0 85:1.0 86:1.0 87:1.0 88:1.0 89:1.0 90:1.0 91:-0.4157303370786517 92:1.0 93:1.0 94:1.0 95:1.0 96:-0.40476190476190477 97:1.0 98:1.0 99:1.0 100:1.0 101:1.0 102:1.0 103:1.0 104:1.0 105:1.0 106:-0.9534883720930233 107:1.0 108:1.0 109:1.0 110:1.0 111:1.0 112:1.0 113:1.0 114:1.0 115:1.0 116:1.0 117:1.0 118:1.0 119:1.0 120:1.0 121:1.0 122:1.0 123:1.0 124:1.0 125:1.0 126:1.0 127:1.0 128:1.0 129:-0.33333333333333337 130:1.0 131:1.0 132:1.0 133:1.0 134:1.0 135:1.0 136:-1.0 137:1.0 138:-0.6444444444444444 139:1.0 140:1.0 141:1.0 142:-0.9782608695652174 143:-0.9782608695652174 144:1.0 145:1.0 146:-1.0 147:-0.8554216867469879 148:-1.0 149:-1.0 150:-1.0 151:-1.0 152:-1.0 153:-1.0 154:-1.0 155:-1.0 156:-1.0 157:1.0 158:1.0 159:1.0 160:1.0 161:1.0 162:1.0 163:1.0 164:1.0 165:1.0 166:1.0 167:1.0 168:1.0 169:1.0 170:1.0 171:1.0 172:1.0 173:1.0 174:1.0 175:1.0 176:1.0 177:1.0 178:1.0 179:1.0 180:1.0 181:1.0 182:1.0 183:1.0 184:1.0 185:1.0 186:1.0 187:1.0 188:1.0 189:1.0 190:1.0 191:1.0 192:1.0 193:1.0 194:1.0 195:1.0 196:1.0 197:1.0 198:1.0 199:1.0 200:1.0 201:1.0 202:1.0 203:1.0 204:1.0 205:1.0 206:1.0 207:1.0 208:1.0 209:1.0 210:1.0 211:1.0 212:1.0 213:1.0 214:1.0 215:1.0 216:1.0 217:1.0 218:1.0 219:1.0 220:1.0 221:1.0 222:1.0 223:1.0 224:1.0 225:1.0 226:1.0 227:1.0 228:1.0 230:1.0 231:1.0 232:1.0 233:1.0 234:1.0 235:1.0 236:1.0 237:1.0 238:1.0 239:1.0 240:1.0 241:1.0 242:1.0 243:1.0 244:1.0 245:1.0 246:1.0 247:1.0 248:1.0 249:1.0 250:1.0 251:1.0 252:1.0 253:1.0 254:1.0 255:1.0 256:1.0 257:1.0 258:1.0 259:1.0 260:1.0 261:1.0 262:1.0 263:1.0 264:1.0 265:1.0 266:1.0 267:1.0 268:1.0 269:1.0 270:1.0 271:1.0 272:1.0 273:1.0 274:1.0 275:1.0 276:1.0 278:1.0 279:1.0 280:1.0 281:1.0 282:1.0 283:1.0 284:1.0 285:1.0 286:1.0 287:1.0 288:1.0 289:1.0 290:1.0 291:1.0 292:1.0 293:1.0 294:1.0 295:1.0 296:1.0 297:1.0 298:1.0 299:1.0 300:1.0 301:1.0 302:1.0 303:1.0 304:1.0 305:1.0 306:1.0 307:1.0 308:1.0 309:1.0 310:1.0 311:1.0 312:1.0 313:1.0 314:1.0 315:1.0 316:1.0 317:1.0 318:1.0 319:1.0 320:1.0 321:1.0 322:1.0 323:1.0 324:1.0 325:1.0 326:1.0 327:1.0 328:1.0 329:1.0 330:1.0 331:1.0 332:1.0 333:1.0 334:1.0 335:1.0 336:1.0 338:1.0 339:1.0 340:1.0 341:1.0 342:1.0 344:1.0 345:1.0 346:1.0 347:1.0 348:1.0 349:1.0 350:1.0 351:1.0 352:1.0 353:1.0 354:1.0 355:1.0 356:1.0 357:1.0 358:1.0 359:1.0 360:1.0 361:1.0 362:1.0 363:1.0 364:1.0 365:1.0 366:1.0 367:1.0 368:1.0 369:1.0 370:1.0 371:1.0 372:1.0 373:1.0 374:1.0 375:1.0 376:1.0 377:1.0 378:1.0 379:1.0 380:1.0 381:1.0 382:1.0 383:1.0 384:1.0 385:1.0 386:1.0 387:1.0 388:1.0 390:1.0 391:1.0 392:1.0 393:1.0 394:1.0 395:1.0 396:1.0 397:1.0 398:1.0 399:1.0 400:1.0 401:1.0 402:1.0 403:1.0 404:1.0 405:1.0 406:1.0 407:1.0 408:1.0 409:1.0 410:1.0 411:1.0 412:1.0 413:1.0 414:1.0 415:1.0 416:1.0 417:1.0 418:1.0 419:1.0 420:1.0 421:1.0 422:1.0 423:1.0 424:1.0 425:1.0 426:1.0 427:1.0 428:1.0 429:1.0 430:1.0 431:1.0 432:1.0 433:1.0 434:1.0 435:1.0 436:1.0 437:1.0 438:1.0 439:1.0 440:1.0 441:1.0 442:1.0 443:1.0 444:1.0 445:1.0 446:1.0 447:1.0 448:1.0 449:1.0 450:1.0 451:1.0 452:1.0 453:1.0 454:1.0 455:1.0 456:1.0 457:1.0 458:1.0 459:1.0 460:1.0 461:1.0 462:1.0 463:1.0 464:1.0 465:1.0 466:1.0 467:1.0 468:1.0 469:1.0 470:1.0 471:1.0 472:1.0 473:1.0 474:1.0 475:1.0 476:1.0 477:1.0 478:1.0 479:1.0 480:1.0 481:1.0 482:1.0 483:1.0 485:1.0 486:1.0 487:1.0 488:1.0 489:1.0 490:1.0 491:1.0 492:1.0 493:1.0 494:1.0 495:1.0 496:1.0 498:1.0 499:1.0 500:1.0 501:1.0 502:1.0 503:1.0 504:1.0 505:1.0 506:1.0 507:1.0 508:1.0 509:1.0 510:1.0 511:1.0 512:1.0 513:1.0 514:1.0 515:1.0 516:1.0 517:1.0 518:1.0 519:1.0 520:1.0 521:1.0 522:1.0 523:1.0 525:1.0 526:1.0 527:1.0 528:1.0 529:1.0 530:1.0 531:1.0 532:1.0 533:1.0 534:1.0 535:1.0 536:1.0 537:1.0 538:1.0 539:1.0 540:1.0 541:1.0 542:1.0 543:1.0 544:1.0 545:1.0 546:1.0 
-0.008550817974671124 -0.009049171454569807 -0.011293795856919519 -0.008734208762196187 -0.008590295493266942 -0.008666834177499768 -0.00821533772062988 -0.008469892952836075 -0.008991042980741475 -0.009095486509157385 -0.009261926129016301 0.014074791227652704 0.013351424252425364 0.008960519080070147 0.008258751357849821 0.006604759143372736 0.006660873365552218 0.0065693625284507645 0.00798064654245454 0.0070448788537968345 0.009408746102540057 0.010099079962966752 0.007359280817156862 0.009544237049395388 0.008576358062949128 0.01071993483242741 0.00803415102624952 0.00782885840297787 0.008116675224745556 0.005374731185529428 0.0064878341230613515 0.0069631428151896305 0.008587485930155918 0.00928374259939693 0.010663757737960803 0.00816486814316028 0.006304666546094024 0.00719160622268828 0.01032261966716104 0.012047816241388705 0.012031002742663284 0.007731347016395608 1:1.0 2:1.0 3:1.0 4:1.0 5:1.0 6:1.0 7:1.0 8:1.0 9:1.0 10:1.0 11:1.0 12:1.0 13:1.0 14:1.0 15:1.0 16:1.0 17:1.0 18:1.0 19:1.0 20:1.0 21:1.0 22:1.0 23:1.0 24:1.0 25:1.0 26:1.0 27:1.0 28:1.0 29:1.0 30:1.0 31:1.0 32:1.0 33:1.0 34:1.0 35:1.0 36:1.0 37:1.0 38:1.0 39:1.0 40:1.0 41:1.0 42:1.0 43:1.0 44:1.0 45:1.0 46:1.0 47:1.0 48:1.0 49:1.0 50:1.0 51:1.0 52:1.0 53:1.0 54:1.0 55:1.0 56:1.0 57:-1.0 58:1.0 59:1.0 60:1.0 61:1.0 62:1.0 63:1.0 64:1.0 65:-0.9777777777777777 66:1.0 67:1.0 68:1.0 69:1.0 70:1.0 71:1.0 72:1.0 73:1.0 74:1.0 75:1.0 76:1.0 77:1.0 78:1.0 79:1.0 80:1.0 81:1.0 82:1.0 83:1.0 84:1.0 85:1.0 86:1.0 87:1.0 88:1.0 89:1.0 90:1.0 91:1.0 92:1.0 93:1.0 94:1.0 95:1.0 96:1.0 97:1.0 98:1.0 99:1.0 100:1.0 101:-0.2359550561797753 102:1.0 103:1.0 104:1.0 105:1.0 106:-1.0 107:1.0 108:1.0 109:-0.5555555555555556 110:-0.9560439560439561 111:1.0 112:-0.9565217391304348 113:1.0 114:1.0 115:1.0 116:1.0 117:1.0 118:1.0 119:-0.5824175824175823 120:1.0 121:1.0 122:1.0 123:1.0 124:-0.33333333333333337 125:-0.4505494505494505 126:-0.4130434782608695 127:-0.24444444444444446 128:1.0 129:-1.0 130:1.0 131:1.0 132:1.0 133:-0.5714285714285714 134:1.0 135:1.0 136:-0.5824175824175823 137:1.0 138:1.0 139:1.0 140:1.0 141:1.0 142:1.0 143:1.0 144:1.0 145:1.0 146:1.0 147:-0.3975903614457831 148:1.0 149:1.0 150:1.0 151:1.0 152:1.0 153:-0.4772727272727273 154:1.0 155:1.0 156:1.0 157:-0.9080459770114943 158:-0.40740740740740744 159:-0.31818181818181823 160:-0.20430107526881724 161:-1.0 162:-0.975609756097561 163:-1.0 164:-1.0 165:-0.9534883720930233 166:-0.9101123595505618 167:-1.0 168:-1.0 169:-1.0 170:-0.9347826086956522 171:-0.9775280898876404 172:-1.0 173:-0.37349397590361444 174:-0.9058823529411765 175:-0.975609756097561 176:-1.0 177:1.0 178:-0.8901098901098901 179:-1.0 180:-0.9777777777777777 181:-1.0 182:-1.0 183:-1.0 184:-1.0 185:-0.8901098901098901 186:-1.0 187:-0.9555555555555556 188:1.0 189:1.0 190:1.0 191:1.0 192:1.0 193:1.0 194:1.0 195:1.0 196:1.0 197:1.0 198:1.0 199:1.0 200:1.0 201:1.0 202:1.0 203:1.0 204:1.0 205:1.0 206:1.0 207:1.0 208:1.0 209:1.0 210:1.0 211:1.0 212:1.0 213:1.0 214:1.0 215:1.0 216:1.0 217:1.0 218:1.0 219:1.0 220:1.0 221:1.0 222:1.0 223:1.0 224:1.0 225:1.0 226:1.0 227:1.0 228:1.0 230:1.0 231:1.0 232:1.0 233:1.0 234:1.0 235:1.0 236:1.0 237:1.0 238:1.0 239:1.0 240:1.0 241:1.0 242:1.0 243:1.0 244:1.0 245:1.0 246:1.0 247:1.0 248:1.0 249:1.0 250:1.0 251:1.0 252:1.0 253:1.0 254:1.0 255:1.0 256:1.0 257:1.0 258:1.0 259:1.0 260:1.0 261:1.0 262:1.0 263:1.0 264:1.0 265:1.0 266:1.0 267:1.0 268:1.0 269:1.0 270:1.0 271:1.0 272:1.0 273:1.0 274:1.0 275:1.0 276:1.0 278:1.0 279:1.0 280:1.0 281:1.0 282:1.0 283:1.0 284:1.0 285:1.0 286:1.0 287:1.0 288:1.0 289:1.0 290:1.0 291:1.0 292:1.0 293:1.0 294:1.0 295:1.0 296:1.0 297:1.0 298:1.0 299:1.0 300:1.0 301:1.0 302:1.0 303:1.0 304:1.0 305:1.0 306:1.0 307:1.0 308:1.0 309:1.0 310:1.0 311:1.0 312:1.0 313:1.0 314:1.0 315:1.0 316:1.0 317:1.0 318:1.0 319:1.0 320:1.0 321:1.0 322:1.0 323:1.0 324:1.0 325:1.0 326:1.0 327:1.0 328:1.0 329:1.0 330:1.0 331:1.0 332:1.0 333:1.0 334:1.0 335:1.0 336:1.0 338:1.0 339:1.0 340:1.0 341:1.0 342:1.0 344:1.0 345:1.0 346:1.0 347:1.0 348:1.0 349:1.0 350:1.0 351:1.0 352:1.0 353:1.0 354:1.0 355:1.0 356:1.0 357:1.0 358:1.0 359:1.0 360:1.0 361:1.0 362:1.0 363:1.0 364:1.0 365:1.0 366:1.0 367:1.0 368:1.0 369:1.0 370:1.0 371:1.0 372:1.0 373:1.0 374:1.0 375:1.0 376:1.0 377:1.0 378:1.0 379:1.0 380:1.0 381:1.0 382:1.0 383:1.0 384:1.0 385:1.0 386:1.0 387:1.0 388:1.0 390:1.0 391:1.0 392:1.0 393:1.0 394:1.0 395:1.0 396:1.0 397:1.0 398:1.0 399:1.0 400:1.0 401:1.0 402:1.0 403:1.0 404:1.0 405:1.0 406:1.0 407:1.0 408:1.0 409:1.0 410:1.0 411:1.0 412:1.0 413:1.0 414:1.0 415:1.0 416:1.0 417:1.0 418:1.0 419:1.0 420:1.0 421:1.0 422:1.0 423:1.0 424:1.0 425:1.0 426:1.0 427:1.0 428:1.0 429:1.0 430:1.0 431:1.0 432:1.0 433:1.0 434:1.0 435:1.0 436:1.0 437:1.0 438:1.0 439:1.0 440:1.0 441:1.0 442:1.0 443:1.0 444:1.0 445:1.0 446:1.0 447:1.0 448:1.0 449:1.0 450:1.0 451:1.0 452:1.0 453:1.0 454:1.0 455:1.0 456:1.0 457:1.0 458:1.0 459:1.0 460:1.0 461:1.0 462:1.0 463:1.0 464:1.0 465:1.0 466:1.0 467:1.0 468:1.0 469:1.0 470:1.0 471:1.0 472:1.0 473:1.0 474:1.0 475:1.0 476:1.0 477:1.0 478:1.0 479:1.0 480:1.0 481:1.0 482:1.0 483:1.0 485:1.0 486:1.0 487:1.0 488:1.0 489:1.0 490:1.0 491:1.0 492:1.0 493:1.0 494:1.0 495:1.0 496:1.0 498:1.0 499:1.0 500:1.0 501:1.0 502:1.0 503:1.0 504:1.0 505:1.0 506:1.0 507:1.0 508:1.0 509:1.0 510:1.0 511:1.0 512:1.0 513:1.0 514:1.0 515:1.0 516:1.0 517:1.0 518:1.0 519:1.0 520:1.0 521:1.0 522:1.0 523:1.0 525:1.0 526:1.0 527:1.0 528:1.0 529:1.0 530:1.0 531:1.0 532:1.0 533:1.0 534:1.0 535:1.0 536:1.0 537:1.0 538:1.0 539:1.0 540:1.0 541:1.0 542:1.0 543:1.0 544:1.0 545:1.0 546:1.0 
-0.008556341871396887 -0.009055365735300783 -0.011303438048583948 -0.00873997455463951 -0.008598942819182087 -0.008675560563583137 -0.008488824481222672 -0.00810735315257228 -0.00884410696057776 -0.008622685916139327 -0.00878020573784087 -0.014074791227652704 0.03265221524474214 0.009025614809412111 0.008851854883391238 0.006772511967843796 0.00685967025518191 0.006572626439015662 0.007985458122038018 0.007048632509795444 0.009415437202355468 0.010106789357891319 0.0073633770863426075 0.009551127885953097 0.00858191726547766 0.01072862166285778 0.008039029330386737 0.007833490514730227 0.008121654291355425 0.005577547104809137 0.00699432650151336 0.0070259519384405856 0.007704860213031108 0.008047301472227871 0.010672360676806408 0.007917192276775068 0.006720207381399661 0.007195514748960682 0.010330677521948906 0.012058789543062847 0.012041940998605005 0.007735864424065508 1:1.0 2:1.0 3:1.0 4:1.0 5:1.0 6:1.0 7:1.0 8:1.0 9:1.0 10:1.0 11:1.0 12:1.0 13:1.0 14:1.0 15:1.0 16:1.0 17:1.0 18:1.0 19:1.0 20:1.0 21:1.0 22:1.0 23:1.0 24:1.0 25:1.0 26:1.0 27:1.0 28:1.0 29:1.0 30:1.0 31:1.0 32:1.0 33:1.0 34:1.0 35:1.0 36:1.0 37:1.0 38:1.0 39:1.0 40:1.0 41:1.0 42:1.0 43:1.0 44:1.0 45:1.0 46:1.0 47:1.0 48:1.0 49:1.0 50:1.0 51:1.0 52:1.0 53:1.0 54:1.0 55:1.0 56:1.0 57:-1.0 58:1.0 59:1.0 60:1.0 61:1.0 62:1.0 63:1.0 64:1.0 65:-1.0 66:1.0 67:1.0 68:1.0 69:1.0 70:1.0 71:1.0 72:1.0 73:1.0 74:1.0 75:1.0 76:1.0 77:1.0 78:1.0 79:1.0 80:1.0 81:1.0 82:1.0 83:1.0 84:1.0 85:1.0 86:1.0 87:1.0 88:1.0 89:1.0 90:1.0 91:1.0 92:1.0 93:1.0 94:1.0 95:1.0 96:-0.9047619047619048 97:1.0 98:1.0 99:1.0 100:1.0 101:0.1685393258426966 102:1.0 103:1.0 104:1.0 105:1.0 106:1.0 107:1.0 108:1.0 109:-0.15555555555555556 110:1.0 111:1.0 112:-0.8913043478260869 113:-1.0 114:1.0 115:1.0 116:1.0 117:-1.0 118:1.0 119:1.0 120:1.0 121:1.0 122:-0.07692307692307687 123:1.0 124:0.11904761904761907 125:-0.4725274725274725 126:-0.08695652173913049 127:-0.5333333333333333 128:1.0 129:1.0 130:1.0 131:1.0 132:1.0 133:-1.0 134:1.0 135:1.0 136:-0.1428571428571429 137:1.0 138:1.0 139:1.0 140:1.0 141:1.0 142:1.0 143:1.0 144:1.0 145:-0.782608695652174 146:1.0 147:0.27710843373493965 148:1.0 149:1.0 150:1.0 151:1.0 152:1.0 153:-0.4772727272727273 154:1.0 155:1.0 156:1.0 157:1.0 158:-0.7283950617283951 159:-0.8863636363636364 160:-0.6344086021505376 161:1.0 162:1.0 163:-0.7349397590361446 164:1.0 165:1.0 166:-0.8426966292134832 167:1.0 168:1.0 169:1.0 170:-0.9347826086956522 171:-1.0 172:1.0 173:-0.9759036144578314 174:-0.9529411764705882 175:1.0 176:1.0 177:-0.6923076923076923 178:-0.8241758241758241 179:-0.9540229885057472 180:-0.9777777777777777 181:-0.6941176470588235 182:-0.8021978021978022 183:1.0 184:-1.0 185:1.0 186:1.0 187:-1.0 188:-1.0 189:-0.726027397260274 190:-0.6744186046511628 191:-1.0 192:-1.0 193:-0.6705882352941177 194:-1.0 195:-0.9777777777777777 196:-1.0 197:-0.6941176470588235 198:-1.0 199:-1.0 200:-1.0 201:-1.0 202:1.0 203:1.0 204:1.0 205:1.0 206:1.0 207:1.0 208:1.0 209:1.0 210:1.0 211:1.0 212:1.0 213:1.0 214:1.0 215:1.0 216:1.0 217:1.0 218:1.0 219:1.0 220:1.0 221:1.0 222:1.0 223:1.0 224:1.0 225:1.0 226:1.0 227:1.0 228:1.0 230:1.0 231:1.0 232:1.0 233:1.0 234:1.0 235:1.0 236:1.0 237:1.0 238:1.0 239:1.0 240:1.0 241:1.0 242:1.0 243:1.0 244:1.0 245:1.0 246:1.0 247:1.0 248:1.0 249:1.0 250:1.0 251:1.0 252:1.0 253:1.0 254:1.0 255:1.0 256:1.0 257:1.0 258:1.0 259:1.0 260:1.0 261:1.0 262:1.0 263:1.0 264:1.0 265:1.0 266:1.0 267:1.0 268:1.0 269:1.0 270:1.0 271:1.0 272:1.0 273:1.0 274:1.0 275:1.0 276:1.0 278:1.0 279:1.0 280:1.0 281:1.0 282:1.0 283:1.0 284:1.0 285:1.0 286:1.0 287:1.0 288:1.0 289:1.0 290:1.0 291:1.0 292:1.0 293:1.0 294:1.0 295:1.0 296:1.0 297:1.0 298:1.0 299:1.0 300:1.0 301:1.0 302:1.0 303:1.0 304:1.0 305:1.0 306:1.0 307:1.0 308:1.0 309:1.0 310:1.0 311:1.0 312:1.0 313:1.0 314:1.0 315:1.0 316:1.0 317:1.0 318:1.0 319:1.0 320:1.0 321:1.0 322:1.0 323:1.0 324:1.0 325:1.0 326:1.0 327:1.0 328:1.0 329:1.0 330:1.0 331:1.0 332:1.0 333:1.0 334:1.0 335:1.0 336:1.0 338:1.0 339:1.0 340:1.0 341:1.0 342:1.0 344:1.0 345:1.0 346:1.0 347:1.0 348:1.0 349:1.0 350:1.0 351:1.0 352:1.0 353:1.0 354:1.0 355:1.0 356:1.0 357:1.0 358:1.0 359:1.0 360:1.0 361:1.0 362:1.0 363:1.0 364:1.0 365:1.0 366:1.0 367:1.0 368:1.0 369:1.0 370:1.0 371:1.0 372:1.0 373:1.0 374:1.0 375:1.0 376:1.0 377:1.0 378:1.0 379:1.0 380:1.0 381:1.0 382:1.0 383:1.0 384:1.0 385:1.0 386:1.0 387:1.0 388:1.0 390:1.0 391:1.0 392:1.0 393:1.0 394:1.0 395:1.0 396:1.0 397:1.0 398:1.0 399:1.0 400:1.0 401:1.0 402:1.0 403:1.0 404:1.0 405:1.0 406:1.0 407:1.0 408:1.0 409:1.0 410:1.0 411:1.0 412:1.0 413:1.0 414:1.0 415:1.0 416:1.0 417:1.0 418:1.0 419:1.0 420:1.0 421:1.0 422:1.0 423:1.0 424:1.0 425:1.0 426:1.0 427:1.0 428:1.0 429:1.0 430:1.0 431:1.0 432:1.0 433:1.0 434:1.0 435:1.0 436:1.0 437:1.0 438:1.0 439:1.0 440:1.0 441:1.0 442:1.0 443:1.0 444:1.0 445:1.0 446:1.0 447:1.0 448:1.0 449:1.0 450:1.0 451:1.0 452:1.0 453:1.0 454:1.0 455:1.0 456:1.0 457:1.0 458:1.0 459:1.0 460:1.0 461:1.0 462:1.0 463:1.0 464:1.0 465:1.0 466:1.0 467:1.0 468:1.0 469:1.0 470:1.0 471:1.0 472:1.0 473:1.0 474:1.0 475:1.0 476:1.0 477:1.0 478:1.0 479:1.0 480:1.0 481:1.0 482:1.0 483:1.0 485:1.0 486:1.0 487:1.0 488:1.0 489:1.0 490:1.0 491:1.0 492:1.0 493:1.0 494:1.0 495:1.0 496:1.0 498:1.0 499:1.0 500:1.0 501:1.0 502:1.0 503:1.0 504:1.0 505:1.0 506:1.0 507:1.0 508:1.0 509:1.0 510:1.0 511:1.0 512:1.0 513:1.0 514:1.0 515:1.0 516:1.0 517:1.0 518:1.0 519:1.0 520:1.0 521:1.0 522:1.0 523:1.0 525:1.0 526:1.0 527:1.0 528:1.0 529:1.0 530:1.0 531:1.0 532:1.0 533:1.0 534:1.0 535:1.0 536:1.0 537:1.0 538:1.0 539:1.0 540:1.0 541:1.0 542:1.0 543:1.0 544:1.0 545:1.0 546:1.0 
-0.009678816188150894 -0.010322274983036667 -0.013348514444120815 -0.009544445548046851 -0.009130002791828247 -0.009491549774732108 -0.008980981467133001 -0.008741951817887386 -0.009597090881826446 -0.009052916518284996 -0.009218031423674992 -0.013351424252425364 -0.03265221524474214 0.010458607780823737 0.009803886369701779 0.007452477605382123 0.007586957231445955 0.0072154088438082424 0.00895466183225695 0.0077931615768214325 0.010792772057365585 0.011711046510381188 0.008179734488135042 0.01097143102040871 0.00971155484755307 0.01255419282762045 0.009022081080887605 0.00876400467513433 0.009126277568847443 0.006043856322661658 0.007565804815719733 0.007343642252029374 0.007931037153501196 0.008766872309680774 0.012477215412072147 0.008868908343155948 0.007074585187457724 0.007973112158631062 0.012012707779005476 0.014414801213609423 0.014390738772606302 0.008641990611646064 1:1.0 2:1.0 3:1.0 4:1.0 5:1.0 6:1.0 7:1.0 8:1.0 9:1.0 10:1.0 11:1.0 12:1.0 13:1.0 14:1.0 15:1.0 16:1.0 17:1.0 18:1.0 19:1.0 20:1.0 21:1.0 22:1.0 23:1.0 24:1.0 25:1.0 26:1.0 27:1.0 28:1.0 29:1.0 30:1.0 31:1.0 32:1.0 33:1.0 34:1.0 35:1.0 36:1.0 37:1.0 38:1.0 39:1.0 40:1.0 41:1.0 42:1.0 43:1.0 44:1.0 45:1.0 46:1.0 47:1.0 48:1.0 49:1.0 50:1.0 51:1.0 52:1.0 53:1.0 54:1.0 55:1.0 56:1.0 57:1.0 58:1.0 59:1.0 60:1.0 61:1.0 62:1.0 63:1.0 64:1.0 65:1.0 66:1.0 67:1.0 68:1.0 69:1.0 70:1.0 71:1.0 72:1.0 73:1.0 74:1.0 75:1.0 76:1.0 77:1.0 78:1.0 79:1.0 80:1.0 81:1.0 82:1.0 83:1.0 84:1.0 85:1.0 86:1.0 87:1.0 88:1.0 89:1.0 90:1.0 91:1.0 92:1.0 93:1.0 94:1.0 95:1.0 96:1.0 97:1.0 98:1.0 99:1.0 100:1.0 101:0.03370786516853941 102:1.0 103:1.0 104:1.0 105:1.0 106:1.0 107:1.0 108:1.0 109:-0.3111111111111111 110:-0.9340659340659341 111:1.0 112:-0.9347826086956522 113:1.0 114:1.0 115:1.0 116:1.0 117:1.0 118:1.0 119:1.0 120:1.0 121:1.0 122:-0.07692307692307687 123:1.0 124:-0.023809523809523836 125:-0.8901098901098901 126:-0.13043478260869568 127:-0.6 128:1.0 129:1.0 130:1.0 131:-0.8636363636363636 132:1.0 133:-1.0 134:1.0 135:1.0 136:-0.29670329670329665 137:1.0 138:1.0 139:1.0 140:1.0 141:1.0 142:1.0 143:1.0 144:1.0 145:-0.782608695652174 146:1.0 147:0.0843373493975903 148:1.0 149:1.0 150:1.0 151:1.0 152:1.0 153:-0.18181818181818177 154:1.0 155:1.0 156:1.0 157:1.0 158:-0.8024691358024691 159:-0.9090909090909091 160:-0.8279569892473118 161:1.0 162:1.0 163:-0.6867469879518072 164:1.0 165:1.0 166:1.0 167:1.0 168:1.0 169:-0.9111111111111111 170:-0.8913043478260869 171:-1.0 172:1.0 173:-1.0 174:1.0 175:1.0 176:1.0 177:-0.7802197802197802 178:-0.7802197802197802 179:1.0 180:-0.9555555555555556 181:-0.7647058823529411 182:1.0 183:1.0 184:1.0 185:1.0 186:1.0 187:-0.9777777777777777 188:1.0 189:-0.726027397260274 190:-0.813953488372093 191:-1.0 192:1.0 193:-0.6705882352941177 194:-1.0 195:-0.9777777777777777 196:-1.0 197:-0.6235294117647059 198:-1.0 199:-1.0 200:-1.0 201:-1.0 202:-1.0 203:1.0 204:1.0 205:1.0 206:1.0 207:1.0 208:1.0 209:1.0 210:1.0 211:1.0 212:1.0 213:1.0 214:1.0 215:1.0 216:1.0 217:1.0 218:1.0 219:1.0 220:1.0 221:1.0 222:1.0 223:1.0 224:1.0 225:1.0 226:1.0 227:1.0 228:1.0 230:1.0 231:1.0 232:1.0 233:1.0 234:1.0 235:1.0 236:1.0 237:1.0 238:1.0 239:1.0 240:1.0 241:1.0 242:1.0 243:1.0 244:1.0 245:1.0 246:1.0 247:1.0 248:1.0 249:1.0 250:1.0 251:1.0 252:1.0 253:1.0 254:1.0 255:1.0 256:1.0 257:1.0 258:1.0 259:1.0 260:1.0 261:1.0 262:1.0 263:1.0 264:1.0 265:1.0 266:1.0 267:1.0 268:1.0 269:1.0 270:1.0 271:1.0 272:1.0 273:1.0 274:1.0 275:1.0 276:1.0 278:1.0 279:1.0 280:1.0 281:1.0 282:1.0 283:1.0 284:1.0 285:1.0 286:1.0 287:1.0 288:1.0 289:1.0 290:1.0 291:1.0 292:1.0 293:1.0 294:1.0 295:1.0 296:1.0 297:1.0 298:1.0 299:1.0 300:1.0 301:1.0 302:1.0 303:1.0 304:1.0 305:1.0 306:1.0 307:1.0 308:1.0 309:1.0 310:1.0 311:1.0 312:1.0 313:1.0 314:1.0 315:1.0 316:1.0 317:1.0 318:1.0 319:1.0 320:1.0 321:1.0 322:1.0 323:1.0 324:1.0 325:1.0 326:1.0 327:1.0 328:1.0 329:1.0 330:1.0 331:1.0 332:1.0 333:1.0 334:1.0 335:1.0 336:1.0 338:1.0 339:1.0 340:1.0 341:1.0 342:1.0 344:1.0 345:1.0 346:1.0 347:1.0 348:1.0 349:1.0 350:1.0 351:1.0 352:1.0 353:1.0 354:1.0 355:1.0 356:1.0 357:1.0 358:1.0 359:1.0 360:1.0 361:1.0 362:1.0 363:1.0 364:1.0 365:1.0 366:1.0 367:1.0 368:1.0 369:1.0 370:1.0 371:1.0 372:1.0 373:1.0 374:1.0 375:1.0 376:1.0 377:1.0 378:1.0 379:1.0 380:1.0 381:1.0 382:1.0 383:1.0 384:1.0 385:1.0 386:1.0 387:1.0 388:1.0 390:1.0 391:1.0 392:1.0 393:1.0 394:1.0 395:1.0 396:1.0 397:1.0 398:1.0 399:1.0 400:1.0 401:1.0 402:1.0 403:1.0 404:1.0 405:1.0 406:1.0 407:1.0 408:1.0 409:1.0 410:1.0 411:1.0 412:1.0 413:1.0 414:1.0 415:1.0 416:1.0 417:1.0 418:1.0 419:1.0 420:1.0 421:1.0 422:1.0 423:1.0 424:1.0 425:1.0 426:1.0 427:1.0 428:1.0 429:1.0 430:1.0 431:1.0 432:1.0 433:1.0 434:1.0 435:1.0 436:1.0 437:1.0 438:1.0 439:1.0 440:1.0 441:1.0 442:1.0 443:1.0 444:1.0 445:1.0 446:1.0 447:1.0 448:1.0 449:1.0 450:1.0 451:1.0 452:1.0 453:1.0 454:1.0 455:1.0 456:1.0 457:1.0 458:1.0 459:1.0 460:1.0 461:1.0 462:1.0 463:1.0 464:1.0 465:1.0 466:1.0 467:1.0 468:1.0 469:1.0 470:1.0 471:1.0 472:1.0 473:1.0 474:1.0 475:1.0 476:1.0 477:1.0 478:1.0 479:1.0 480:1.0 481:1.0 482:1.0 483:1.0 485:1.0 486:1.0 487:1.0 488:1.0 489:1.0 490:1.0 491:1.0 492:1.0 493:1.0 494:1.0 495:1.0 496:1.0 498:1.0 499:1.0 500:1.0 501:1.0 502:1.0 503:1.0 504:1.0 505:1.0 506:1.0 507:1.0 508:1.0 509:1.0 510:1.0 511:1.0 512:1.0 513:1.0 514:1.0 515:1.0 516:1.0 517:1.0 518:1.0 519:1.0 520:1.0 521:1.0 522:1.0 523:1.0 525:1.0 526:1.0 527:1.0 528:1.0 529:1.0 530:1.0 531:1.0 532:1.0 533:1.0 534:1.0 535:1.0 536:1.0 537:1.0 538:1.0 539:1.0 540:1.0 541:1.0 542:1.0 543:1.0 544:1.0 545:1.0 546:1.0 
